{"learner":{"attributes":{},"feature_names":[],"feature_types":[],"gradient_booster":{"model":{"gbtree_model_param":{"num_parallel_tree":"1","num_trees":"20"},"iteration_indptr":[0,1,2,3,4,5,6,7,8,9,10,11,12,13,14,15,16,17,18,19,20],"tree_info":[0,0,0,0,0,0,0,0,0,0,0,0,0,0,0,0,0,0,0,0],"trees":[{"base_weights":[-2.8997955E-3,-1.4043448E0,1.5808817E0,-1.4866148E0,9.319754E-1,1.8928812E0,-8.938462E-1,-8.2866386E-2,-1.5255462E0,2.011169E-1,-7.126426E-1,2.0825772E0,-4.3690455E-1,1.8990983E-1,-1.477331E0,8.6779416E-1,-1.0923059E0,-1.542584E0,5.313478E-1,4.2880166E-2,-1.2146085E-1,6.010702E-1,2.2883606E0,1.7967606E0,-1.375008E0,6.269165E-2,-1.5996884E-1,1.5052946E0,-5.9661813E-2,-0E0,-1.2856193E-1,-1.5912189E-1,-1.563093E0,1.1606485E-1,-2.3701934E-3,1.8038576E0,4.0648736E-2,-8.047128E-2,2.3271425E0,1.9649439E-1,-0E0,4.2880166E-2,-1.5589485E-1,1.6940024E-1,-0E0,-1.11390546E-1,6.140379E-2,-1.57793E-1,-3.5878194E-3,-1.8877324E-2,2.1471818E-1,-5.5937886E-2,1.1967571E-1,2.3398066E-1,2.6177749E-2],"categories":[],"categories_nodes":[],"categories_segments":[],"categories_sizes":[],"default_left":[0,0,0,0,0,0,0,0,0,0,0,0,0,0,0,0,0,0,0,0,0,0,0,0,0,0,0,0,0,0,0,0,0,0,0,0,0,0,0,0,0,0,0,0,0,0,0,0,0,0,0,0,0,0,0],"id":0,"left_children":[1,3,5,7,9,11,13,15,17,-1,19,21,23,-1,25,27,29,31,33,-1,-1,35,37,39,41,-1,-1,43,-1,-1,-1,45,47,-1,-1,49,51,-1,53,-1,-1,-1,-1,-1,-1,-1,-1,-1,-1,-1,-1,-1,-1,-1,-1],"loss_changes":[1.9716849E3,9.259772E1,3.244547E2,2.3208252E1,3.1564535E1,1.6641064E2,7.8939835E1,1.4671789E1,1.7368042E1,0E0,5.2071857E0,1.00430176E2,6.144182E1,0E0,1.2201759E1,8.613953E0,1.5745335E0,1.0525879E1,2.5280352E0,0E0,0E0,2.7627525E1,3.9450928E1,7.070236E-1,8.714134E0,0E0,0E0,5.3562164E-2,0E0,0E0,0E0,7.281059E0,8.145508E0,0E0,0E0,1.1490738E1,2.315145E1,0E0,4.565674E0,0E0,0E0,0E0,0E0,0E0,0E0,0E0,0E0,0E0,0E0,0E0,0E0,0E0,0E0,0E0,0E0],"parents":[2147483647,0,0,1,1,2,2,3,3,4,4,5,5,6,6,7,7,8,8,10,10,11,11,12,12,14,14,15,15,16,16,17,17,18,18,21,21,22,22,23,23,24,24,27,27,31,31,32,32,35,35,36,36,38,38],"right_children":[2,4,6,8,10,12,14,16,18,-1,20,22,24,-1,26,28,30,32,34,-1,-1,36,38,40,42,-1,-1,44,-1,-1,-1,46,48,-1,-1,50,52,-1,54,-1,-1,-1,-1,-1,-1,-1,-1,-1,-1,-1,-1,-1,-1,-1,-1],"split_conditions":[-7.8E1,1.98E2,-1.14E2,-7E1,-2E1,1.82E2,-1.81E2,5.6E1,2.15E2,2.011169E-1,-2.47E2,4.7E1,1.97E2,1.8990983E-1,-2.96E2,2.91E2,-2.6E2,-8.19E2,2E0,4.2880166E-2,-1.2146085E-1,-6.7E1,-1.99E2,2E0,-9.21E2,6.269165E-2,-1.5996884E-1,-2.1E1,-5.9661813E-2,-0E0,-1.2856193E-1,-8E0,1.13E2,1.1606485E-1,-2.3701934E-3,-9.78E2,7.7E1,-8.047128E-2,1.685E3,1.9649439E-1,-0E0,4.2880166E-2,-1.5589485E-1,1.6940024E-1,-0E0,-1.11390546E-1,6.140379E-2,-1.57793E-1,-3.5878194E-3,-1.8877324E-2,2.1471818E-1,-5.5937886E-2,1.1967571E-1,2.3398066E-1,2.6177749E-2],"split_indices":[5905,3506,1,5964,1796,2718,3032,4750,3374,0,1495,3000,3222,0,1153,5980,361,5968,53,0,0,963,5275,68,2391,0,0,56,0,0,0,1575,5772,0,0,1071,5708,0,2279,0,0,0,0,0,0,0,0,0,0,0,0,0,0,0,0],"split_type":[0,0,0,0,0,0,0,0,0,0,0,0,0,0,0,0,0,0,0,0,0,0,0,0,0,0,0,0,0,0,0,0,0,0,0,0,0,0,0,0,0,0,0,0,0,0,0,0,0,0,0,0,0,0,0],"sum_hessian":[8.8639264E2,4.7066168E2,4.15731E2,4.554166E2,1.5245083E1,3.6975375E2,4.5977234E1,1.3067214E1,4.423494E2,9.437432E0,5.8076506E0,3.424094E2,2.7344355E1,7.2595634E0,3.871767E1,6.291621E0,6.7755923E0,4.3944556E2,2.9038253E0,1.2099272E0,4.5977235E0,4.2831425E1,2.9957797E2,7.501549E0,1.9842806E1,1.4519126E0,3.726576E1,4.839709E0,1.4519126E0,1.2099272E0,5.5656652E0,7.2595634E0,4.32186E2,1.6938981E0,1.2099272E0,1.2341257E1,3.0490166E1,3.1458106E0,2.9643216E2,6.291621E0,1.2099272E0,1.2099272E0,1.863288E1,3.6297817E0,1.2099272E0,3.6297817E0,3.6297817E0,4.2734628E2,4.839709E0,1.4519126E0,1.0889345E1,1.9842806E1,1.064736E1,2.940123E2,2.4198544E0],"tree_param":{"num_deleted":"0","num_feature":"6000","num_nodes":"55","size_leaf_vector":"1"}},{"base_weights":[-4.349311E-3,-1.3597479E0,1.3470421E0,-1.4189774E0,6.006372E-1,1.6082903E0,-8.40452E-1,-2.2223968E-2,-1.450947E0,1.7549808E-1,-1.14352755E-1,1.7555261E0,-5.507612E-1,1.704737E-1,-1.3827837E0,6.6042966E-1,-1.1243229E-1,-1.5346278E-1,-1.4630994E0,5.1211345E-1,1.9600009E0,1.4848851E0,-1.3681874E0,8.4204026E-2,-1.5008518E0,1.3793895E-1,-6.608788E-2,-1.0054704E-1,9.885762E-2,-1.4696838E0,-0E0,1.60521E0,-3.3710808E-2,-7.2174627E-1,2.0001037E0,-0E0,1.6380212E-1,-0E0,-1.459068E-1,-0E0,-1.5246564E-1,-1.4740856E-1,-0E0,-0E0,1.815429E-1,-4.314384E-2,1.5220307E-1,-9.431708E-2,-0E0,2.035663E-1,7.007724E-2],"categories":[],"categories_nodes":[],"categories_segments":[],"categories_sizes":[],"default_left":[0,0,0,0,0,0,0,0,0,0,0,0,0,0,0,0,0,0,0,0,0,0,0,0,0,0,0,0,0,0,0,0,0,0,0,0,0,0,0,0,0,0,0,0,0,0,0,0,0,0,0],"id":1,"left_children":[1,3,5,7,9,11,13,15,17,-1,-1,19,21,-1,23,25,-1,27,29,31,33,35,37,-1,39,-1,-1,-1,-1,41,-1,43,45,47,49,-1,-1,-1,-1,-1,-1,-1,-1,-1,-1,-1,-1,-1,-1,-1,-1],"loss_changes":[1.6142263E3,5.280127E1,2.540979E2,1.761676E1,2.9037247E1,1.2762158E2,6.731015E1,9.7063265E0,4.748657E0,0E0,0E0,9.062402E1,4.4382336E1,0E0,1.2392693E1,8.323706E0,0E0,6.614379E0,4.3912964E0,3.4030697E1,3.679248E1,2.9958344E-1,2.359394E0,0E0,6.616211E-2,0E0,0E0,0E0,0E0,2.7647095E0,0E0,7.040558E0,2.220888E1,7.9320407E-1,1.0287842E1,0E0,0E0,0E0,0E0,0E0,0E0,0E0,0E0,0E0,0E0,0E0,0E0,0E0,0E0,0E0,0E0],"parents":[2147483647,0,0,1,1,2,2,3,3,4,4,5,5,6,6,7,7,8,8,11,11,12,12,14,14,15,15,17,17,18,18,19,19,20,20,21,21,22,22,24,24,29,29,31,31,32,32,33,33,34,34],"right_children":[2,4,6,8,10,12,14,16,18,-1,-1,20,22,-1,24,26,-1,28,30,32,34,36,38,-1,40,-1,-1,-1,-1,42,-1,44,46,48,50,-1,-1,-1,-1,-1,-1,-1,-1,-1,-1,-1,-1,-1,-1,-1,-1],"split_conditions":[-1.05E2,1.95E2,-1.14E2,-7.12E2,-2.6E1,1.64E2,-1.81E2,-2.07E2,-1.03E2,1.7549808E-1,-1.14352755E-1,5.4E1,1.83E2,1.704737E-1,-2.96E2,8.6E1,-1.1243229E-1,-1.1E1,1.3E2,-8.5E1,-1.67E2,-3.06E2,-8.2E1,8.4204026E-2,-1.38E2,1.3793895E-1,-6.608788E-2,-1.0054704E-1,9.885762E-2,5.231E3,-0E0,-2.5E1,3.35E2,3.1E1,1.08E2,-0E0,1.6380212E-1,-0E0,-1.459068E-1,-0E0,-1.5246564E-1,-1.4740856E-1,-0E0,-0E0,1.815429E-1,-4.314384E-2,1.5220307E-1,-9.431708E-2,-0E0,2.035663E-1,7.007724E-2],"split_indices":[5881,3566,1,5926,1802,2592,3032,2929,5166,0,0,3000,3228,0,1153,213,0,4130,5958,3707,5665,1,2,0,38,0,0,0,0,2943,0,5897,3603,69,1322,0,0,0,0,0,0,0,0,0,0,0,0,0,0,0,0],"split_type":[0,0,0,0,0,0,0,0,0,0,0,0,0,0,0,0,0,0,0,0,0,0,0,0,0,0,0,0,0,0,0,0,0,0,0,0,0,0,0,0,0,0,0,0,0,0,0,0,0,0,0],"sum_hessian":[8.792777E2,4.3935434E2,4.3992334E2,4.2723257E2,1.2121775E1,3.9363428E2,4.628906E1,1.0297768E1,4.169348E2,7.6354985E0,4.486276E0,3.6911285E2,2.4521437E1,7.4304338E0,3.8858627E1,6.04612E0,4.2516475E0,4.7588396E0,4.1217596E2,5.331276E1,3.1580008E2,6.441128E0,1.8080309E1,1.2224175E0,3.7636208E1,4.377223E0,1.6688973E0,3.295484E0,1.4633555E0,4.105151E2,1.6608713E0,1.7718985E1,3.5593773E1,4.035081E0,3.11765E2,1.2146273E0,5.2265005E0,1.1945957E0,1.6885714E1,1.1685815E0,3.646763E1,4.0933347E2,1.181641E0,1.9479316E0,1.5771052E1,2.943431E1,6.1594644E0,2.8401284E0,1.1949527E0,3.0215942E2,9.605571E0],"tree_param":{"num_deleted":"0","num_feature":"6000","num_nodes":"51","size_leaf_vector":"1"}},{"base_weights":[-5.1745772E-3,-1.2273607E0,1.2654016E0,-1.3030038E0,7.520406E-1,1.5017871E0,-7.577331E-1,-3.125203E-2,-1.3403553E0,1.6292132E-1,-6.325322E-1,1.6437699E0,-4.1880175E-1,1.5412451E-1,-1.2926382E0,-7.150191E-1,1.15677856E-1,-1.3564174E0,4.1259137E-1,3.46043E-2,-1.10358015E-1,4.93703E-1,1.7985996E0,1.5330638E-1,-1.1151439E0,6.1507877E-2,-1.4157872E0,3.4243662E-2,-1.1237705E-1,-2.2400204E-2,-1.3776582E0,9.7513385E-2,-2.203856E-3,-0E0,1.5340849E0,-7.144024E-2,1.8289906E0,-1.4056966E-1,7.27426E-2,-1.4396356E-1,-0E0,-8.162858E-2,1.0019717E-1,-1.3919735E-1,-0E0,1.3281846E-1,-3.7314586E-2,1.6933529E-1,-0E0,1.3595943E-1,1.9022025E-1],"categories":[],"categories_nodes":[],"categories_segments":[],"categories_sizes":[],"default_left":[0,0,0,0,0,0,0,0,0,0,0,0,0,0,0,0,0,0,0,0,0,0,0,0,0,0,0,0,0,0,0,0,0,0,0,0,0,0,0,0,0,0,0,0,0,0,0,0,0,0,0],"id":2,"left_children":[1,3,5,7,9,11,13,15,17,-1,19,21,23,-1,25,27,-1,29,31,-1,-1,33,35,-1,37,-1,39,-1,-1,41,43,-1,-1,45,47,-1,49,-1,-1,-1,-1,-1,-1,-1,-1,-1,-1,-1,-1,-1,-1],"loss_changes":[1.3402635E3,6.746057E1,2.0407074E2,1.877356E1,2.189089E1,1.0535162E2,5.64078E1,1.1687526E1,1.310553E1,0E0,4.1915402E0,5.9836975E1,3.720625E1,0E0,1.03542595E1,5.481146E0,0E0,1.0161682E1,1.9386144E0,0E0,0E0,2.2351229E1,2.615509E1,0E0,1.2639547E1,0E0,5.2452087E-2,0E0,0E0,7.273473E0,7.161133E0,0E0,0E0,1.6091358E1,3.752571E0,0E0,4.727173E0,0E0,0E0,0E0,0E0,0E0,0E0,0E0,0E0,0E0,0E0,0E0,0E0,0E0,0E0],"parents":[2147483647,0,0,1,1,2,2,3,3,4,4,5,5,6,6,7,7,8,8,10,10,11,11,12,12,14,14,15,15,17,17,18,18,21,21,22,22,24,24,26,26,29,29,30,30,33,33,34,34,36,36],"right_children":[2,4,6,8,10,12,14,16,18,-1,20,22,24,-1,26,28,-1,30,32,-1,-1,34,36,-1,38,-1,40,-1,-1,42,44,-1,-1,46,48,-1,50,-1,-1,-1,-1,-1,-1,-1,-1,-1,-1,-1,-1,-1,-1],"split_conditions":[-7.8E1,1.98E2,-1.14E2,-6E1,-2E1,1.74E2,-1.81E2,6.1E1,2.15E2,1.6292132E-1,3.2E1,4.7E1,1.12E2,1.5412451E-1,-1.65E2,-3.29E2,1.15677856E-1,-8.19E2,-2.5E1,3.46043E-2,-1.10358015E-1,8.1E1,-1.99E2,1.5330638E-1,4E2,6.1507877E-2,4.18E2,3.4243662E-2,-1.1237705E-1,-4.8E1,1.13E2,9.7513385E-2,-2.203856E-3,-3.5E1,1.1E1,-7.144024E-2,-4.6E1,-1.4056966E-1,7.27426E-2,-1.4396356E-1,-0E0,-8.162858E-2,1.0019717E-1,-1.3919735E-1,-0E0,1.3281846E-1,-3.7314586E-2,1.6933529E-1,-0E0,1.3595943E-1,1.9022025E-1],"split_indices":[5905,3506,1,5886,1796,2682,3032,5984,3374,0,2846,3000,2592,0,1322,5937,0,5968,1197,0,0,1630,5275,0,2976,0,9,0,0,3590,5772,0,0,203,2857,0,3583,0,0,0,0,0,0,0,0,0,0,0,0,0,0],"split_type":[0,0,0,0,0,0,0,0,0,0,0,0,0,0,0,0,0,0,0,0,0,0,0,0,0,0,0,0,0,0,0,0,0,0,0,0,0,0,0,0,0,0,0,0,0,0,0,0,0,0,0],"sum_hessian":[8.6110657E2,4.3932977E2,4.2177682E2,4.2397446E2,1.5355313E1,3.7832486E2,4.345196E1,1.2913164E1,4.110613E2,9.7340355E0,5.6212783E0,3.5290088E2,2.542398E1,7.493722E0,3.595824E1,8.98294E0,3.9302244E0,4.081184E2,2.9428916E0,1.2230053E0,4.398273E0,4.3136063E1,3.097648E2,5.991626E0,1.9432356E1,1.4458331E0,3.451241E1,1.867474E0,7.115465E0,7.166483E0,4.0095193E2,1.7434946E0,1.199397E0,3.0067549E1,1.3068512E1,3.0392642E0,3.0672556E2,1.7459076E1,1.97328E0,3.3370895E1,1.1415118E0,4.7018805E0,2.4646025E0,3.9642282E2,4.529093E0,6.155392E0,2.3912157E1,1.1855228E1,1.2132843E0,4.586873E1,2.608568E2],"tree_param":{"num_deleted":"0","num_feature":"6000","num_nodes":"51","size_leaf_vector":"1"}},{"base_weights":[-4.7344393E-3,-1.206414E0,1.1161155E0,-1.2620848E0,5.0839955E-1,1.3309559E0,-6.7694974E-1,-0E0,-1.2928497E0,1.4819524E-1,-1.0171317E-1,1.4604286E0,-3.341353E-1,1.455221E-1,-1.2244055E0,5.793491E-1,-1.0003661E-1,-1.3645948E0,-9.701777E-1,4.2139813E-1,1.6375326E0,1.2127072E0,-1.1284541E0,7.537528E-2,-1.3670874E-1,1.2059376E0,-5.7294328E-2,-1.3824341E0,-0E0,-3.683911E-1,-1.3412361E0,-5.6258726E-1,8.950446E-1,1.7388165E-1,1.6957883E0,-0E0,1.490505E-1,-1.3332003E-1,2.8126115E-2,-0E0,1.3880017E-1,-1.3916765E-1,-0E0,9.247932E-2,-6.2378425E-2,7.205249E-2,-9.397758E-2,-0E0,-1.3783784E-1,-1.06432535E-1,1.0479981E-1,-4.813248E-2,1.3702743E-1,-6.491864E-2,1.270253E-1,1.7074348E-1,-0E0],"categories":[],"categories_nodes":[],"categories_segments":[],"categories_sizes":[],"default_left":[0,0,0,0,0,0,0,0,0,0,0,0,0,0,0,0,0,0,0,0,0,0,0,0,0,0,0,0,0,0,0,0,0,0,0,0,0,0,0,0,0,0,0,0,0,0,0,0,0,0,0,0,0,0,0,0,0],"id":3,"left_children":[1,3,5,7,9,11,13,15,17,-1,-1,19,21,-1,23,25,-1,27,29,31,33,35,37,-1,-1,39,-1,41,43,45,47,49,51,53,55,-1,-1,-1,-1,-1,-1,-1,-1,-1,-1,-1,-1,-1,-1,-1,-1,-1,-1,-1,-1,-1,-1],"loss_changes":[1.1272094E3,3.9989746E1,1.6818121E2,1.4062439E1,2.1071781E1,8.506653E1,5.576592E1,7.3607235E0,5.1934204E0,0E0,0E0,6.3481262E1,3.591432E1,0E0,1.233337E1,6.413988E0,0E0,8.296387E0,1.4666496E1,2.6274845E1,2.3955078E1,3.4954224E0,7.074665E0,0E0,0E0,2.202115E-1,0E0,4.840027E0,3.3777275E0,2.0322813E1,1.9826355E0,1.5406044E1,2.6350613E1,1.3625329E1,4.380615E0,0E0,0E0,0E0,0E0,0E0,0E0,0E0,0E0,0E0,0E0,0E0,0E0,0E0,0E0,0E0,0E0,0E0,0E0,0E0,0E0,0E0,0E0],"parents":[2147483647,0,0,1,1,2,2,3,3,4,4,5,5,6,6,7,7,8,8,11,11,12,12,14,14,15,15,17,17,18,18,19,19,20,20,21,21,22,22,25,25,27,27,28,28,29,29,30,30,31,31,32,32,33,33,34,34],"right_children":[2,4,6,8,10,12,14,16,18,-1,-1,20,22,-1,24,26,-1,28,30,32,34,36,38,-1,-1,40,-1,42,44,46,48,50,52,54,56,-1,-1,-1,-1,-1,-1,-1,-1,-1,-1,-1,-1,-1,-1,-1,-1,-1,-1,-1,-1,-1,-1],"split_conditions":[-1.05E2,1.95E2,-1.08E2,-7.12E2,-2.6E1,1.82E2,-1.39E2,-2.07E2,3.2E1,1.4819524E-1,-1.0171317E-1,5.4E1,1.47E2,1.455221E-1,-1.81E2,8.6E1,-1.0003661E-1,9E1,-2.34E2,-2.12E2,-8.1E1,-1.078E3,5.2E1,7.537528E-2,-1.3670874E-1,-2.6E1,-5.7294328E-2,1.98E2,-2.55E2,-2.52E2,-1.05E2,8E0,-3.5E1,-5.2E1,1.737E3,-0E0,1.490505E-1,-1.3332003E-1,2.8126115E-2,-0E0,1.3880017E-1,-1.3916765E-1,-0E0,9.247932E-2,-6.2378425E-2,7.205249E-2,-9.397758E-2,-0E0,-1.3783784E-1,-1.06432535E-1,1.0479981E-1,-4.813248E-2,1.3702743E-1,-6.491864E-2,1.270253E-1,1.7074348E-1,-0E0],"split_indices":[5881,3566,283,5926,1802,2718,5792,2929,5201,0,0,3000,2586,0,1718,213,0,4476,2845,5348,5749,2435,3277,0,0,3930,0,3920,1387,5119,5976,1331,3000,3379,2321,0,0,0,0,0,0,0,0,0,0,0,0,0,0,0,0,0,0,0,0,0,0],"split_type":[0,0,0,0,0,0,0,0,0,0,0,0,0,0,0,0,0,0,0,0,0,0,0,0,0,0,0,0,0,0,0,0,0,0,0,0,0,0,0,0,0,0,0,0,0,0,0,0,0,0,0,0,0,0,0,0,0],"sum_hessian":[8.348234E2,4.0327847E2,4.3154492E2,3.914184E2,1.1860093E1,3.8609897E2,4.5445972E1,1.0040646E1,3.8137775E2,7.657414E0,4.2026787E0,3.589143E2,2.7184652E1,8.572797E0,3.6873173E1,6.049814E0,3.9908311E0,3.0682742E2,7.455032E1,5.358263E1,3.0533167E2,8.617473E0,1.856718E1,1.721046E0,3.515213E1,4.450837E0,1.598977E0,3.0327515E2,3.5522535E0,3.0222672E1,4.4327656E1,1.6664211E1,3.6918423E1,1.24971075E1,2.9283456E2,1.677518E0,6.9399548E0,1.6879284E1,1.6878965E0,1.2218827E0,3.2289546E0,3.0174615E2,1.5290151E0,1.6114888E0,1.9407645E0,9.708862E0,2.051381E1,1.3663893E0,4.2961266E1,1.3437996E1,3.2262142E0,8.932079E0,2.7986341E1,6.8502584E0,5.646849E0,2.9034235E2,2.4922276E0],"tree_param":{"num_deleted":"0","num_feature":"6000","num_nodes":"57","size_leaf_vector":"1"}},{"base_weights":[-4.9553816E-3,-1.1380519E0,1.043614E0,-1.1844445E0,4.997932E-1,1.216018E0,-8.212756E-1,1.4074723E-1,-1.221237E0,1.4131081E-1,-9.040131E-2,1.3314586E0,-4.9648646E-1,1.1458782E0,-1.2782745E0,8.839127E-1,-7.4786924E-2,-1.2606041E0,-4.6501955E-1,6.2936264E-1,1.5388427E0,1.1638963E0,-1.1892194E0,1.2681527E-1,-0E0,-0E0,-1.3063827E-1,-3.865471E-2,1.4415634E-1,-1.267765E0,-0E0,5.157385E-1,-1.0442035E0,-9.85395E-1,8.784632E-1,1.5591615E0,-6.668034E-2,-0E0,1.2886392E-1,-1.2735419E-1,-0E0,-1.303059E-1,-7.490961E-2,1.562622E-1,-2.3233488E-2,-1.2192475E-1,-0E0,4.8932735E-2,-1.4012103E-1,1.1493248E-1,-3.89059E-2,-0E0,1.5798621E-1],"categories":[],"categories_nodes":[],"categories_segments":[],"categories_sizes":[],"default_left":[0,0,0,0,0,0,0,0,0,0,0,0,0,0,0,0,0,0,0,0,0,0,0,0,0,0,0,0,0,0,0,0,0,0,0,0,0,0,0,0,0,0,0,0,0,0,0,0,0,0,0,0,0],"id":4,"left_children":[1,3,5,7,9,11,13,15,17,-1,-1,19,21,23,25,27,-1,29,31,33,35,37,39,-1,-1,-1,-1,-1,-1,41,-1,43,45,47,49,51,-1,-1,-1,-1,-1,-1,-1,-1,-1,-1,-1,-1,-1,-1,-1,-1,-1],"loss_changes":[9.5698157E2,3.072348E1,1.357323E2,1.9670715E1,1.5613409E1,7.728485E1,3.3479385E1,7.643406E0,8.655151E0,0E0,0E0,4.9276978E1,2.9465408E1,1.4476776E-1,3.6907196E-1,6.3708677E0,0E0,4.190796E0,1.3035646E1,3.4898514E1,1.4305725E1,3.0861664E-1,1.9793682E0,0E0,0E0,0E0,0E0,0E0,0E0,3.3239136E0,0E0,7.842098E0,3.6287308E0,8.513415E0,2.68182E1,9.944275E0,0E0,0E0,0E0,0E0,0E0,0E0,0E0,0E0,0E0,0E0,0E0,0E0,0E0,0E0,0E0,0E0,0E0],"parents":[2147483647,0,0,1,1,2,2,3,3,4,4,5,5,6,6,7,7,8,8,11,11,12,12,13,13,14,14,15,15,17,17,18,18,19,19,20,20,21,21,22,22,29,29,31,31,32,32,33,33,34,34,35,35],"right_children":[2,4,6,8,10,12,14,16,18,-1,-1,20,22,24,26,28,-1,30,32,34,36,38,40,-1,-1,-1,-1,-1,-1,42,-1,44,46,48,50,52,-1,-1,-1,-1,-1,-1,-1,-1,-1,-1,-1,-1,-1,-1,-1,-1,-1],"split_conditions":[-1.07E2,1.96E2,-6.9E1,-8E1,-2E1,1.64E2,-2.86E2,-1.1E1,5.1E1,1.4131081E-1,-9.040131E-2,-4.3E1,1.83E2,6.6E1,-1.4E2,-2.23E2,-7.4786924E-2,2.06E2,-2.49E2,-2.1E2,1.99E2,-1.69E2,3.7E1,1.2681527E-1,-0E0,-0E0,-1.3063827E-1,-3.865471E-2,1.4415634E-1,1.82E2,-0E0,-4.7E1,9.3E1,-6E1,3.1E1,-8.7E1,-6.668034E-2,-0E0,1.2886392E-1,-1.2735419E-1,-0E0,-1.303059E-1,-7.490961E-2,1.562622E-1,-2.3233488E-2,-1.2192475E-1,-0E0,4.8932735E-2,-1.4012103E-1,1.1493248E-1,-3.89059E-2,-0E0,1.5798621E-1],"split_indices":[5431,3554,7,5964,1796,2592,247,1259,5976,0,0,3601,3228,6,99,5305,0,3722,2863,4028,422,161,4349,0,0,0,0,0,0,5999,0,3818,5196,5056,1754,3000,0,0,0,0,0,0,0,0,0,0,0,0,0,0,0,0,0],"split_type":[0,0,0,0,0,0,0,0,0,0,0,0,0,0,0,0,0,0,0,0,0,0,0,0,0,0,0,0,0,0,0,0,0,0,0,0,0,0,0,0,0,0,0,0,0,0,0,0,0,0,0,0,0],"sum_hessian":[8.033725E2,3.865406E2,4.1683194E2,3.767562E2,9.784387E0,3.823673E2,3.4464626E1,9.367088E0,3.673891E2,6.355335E0,3.4290516E0,3.5897513E2,2.3392204E1,5.8005495E0,2.8664078E1,5.7167277E0,3.650361E0,3.47319E2,2.0070103E1,8.3874855E1,2.7510025E2,6.261225E0,1.713098E1,4.6423807E0,1.1581688E0,1.0465161E0,2.7617561E1,1.2904255E0,4.426302E0,3.4600262E2,1.3163686E0,6.8513613E0,1.3218741E1,1.0278131E1,7.3596725E1,2.733288E2,1.7714721E0,1.1519113E0,5.109314E0,1.602992E1,1.1010582E0,3.2073712E2,2.5265522E1,2.9587185E0,3.8926427E0,1.1870139E1,1.3486027E0,1.6927936E0,8.585337E0,6.1365494E1,1.2231232E1,3.1576777E0,2.701711E2],"tree_param":{"num_deleted":"0","num_feature":"6000","num_nodes":"53","size_leaf_vector":"1"}},{"base_weights":[-5.7558613E-3,-1.0939307E0,9.6470934E-1,-1.1468074E0,4.3021157E-1,1.1468884E0,-6.10377E-1,-0E0,-1.1779319E0,1.2845308E-1,-9.1789864E-2,1.2531066E0,-3.7022436E-1,1.2595026E-1,-1.121329E0,5.4618716E-1,-8.926827E-2,-4.1469005E-1,-1.206587E0,3.0910963E-1,1.4205987E0,9.746655E-1,-1.1010084E0,6.3233845E-2,-1.2605839E0,-5.0117243E-2,1.1165212E0,5.84684E-1,-9.756869E-1,-0E0,-1.214915E0,1.3775601E0,-5.05977E-2,7.191681E-2,1.4780126E0,1.2733035E-1,-0E0,-0E0,-1.2245931E-1,-1.2821163E-1,-0E0,-0E0,1.2867625E-1,1.3656619E-1,-4.4104632E-2,-0E0,-1.1188916E-1,-1.2819132E-1,-8.888865E-2,-0E0,1.514567E-1,1.03893116E-1,-4.1310977E-2,-9.829684E-2,6.734394E-2,1.490482E-1,-0E0],"categories":[],"categories_nodes":[],"categories_segments":[],"categories_sizes":[],"default_left":[0,0,0,0,0,0,0,0,0,0,0,0,0,0,0,0,0,0,0,0,0,0,0,0,0,0,0,0,0,0,0,0,0,0,0,0,0,0,0,0,0,0,0,0,0,0,0,0,0,0,0,0,0,0,0,0,0],"id":5,"left_children":[1,3,5,7,9,11,13,15,17,-1,-1,19,21,-1,23,25,-1,27,29,31,33,35,37,-1,39,-1,41,43,45,-1,47,49,51,53,55,-1,-1,-1,-1,-1,-1,-1,-1,-1,-1,-1,-1,-1,-1,-1,-1,-1,-1,-1,-1,-1,-1],"loss_changes":[8.150996E2,3.0568176E1,1.1815152E2,1.2154022E1,1.5720267E1,6.0345062E1,4.1711315E1,5.809828E0,5.387268E0,0E0,0E0,5.206482E1,2.4897226E1,0E0,9.774773E0,5.3345547E0,0E0,9.488852E0,4.0513916E0,2.2099031E1,2.0810242E1,3.4943962E0,3.111082E0,0E0,1.3751602E-1,0E0,2.417059E-1,5.8950334E0,1.9367628E0,0E0,3.8404846E0,2.933361E0,1.5824587E1,8.988118E0,4.4592285E0,0E0,0E0,0E0,0E0,0E0,0E0,0E0,0E0,0E0,0E0,0E0,0E0,0E0,0E0,0E0,0E0,0E0,0E0,0E0,0E0,0E0,0E0],"parents":[2147483647,0,0,1,1,2,2,3,3,4,4,5,5,6,6,7,7,8,8,11,11,12,12,14,14,15,15,17,17,18,18,19,19,20,20,21,21,22,22,24,24,26,26,27,27,28,28,30,30,31,31,32,32,33,33,34,34],"right_children":[2,4,6,8,10,12,14,16,18,-1,-1,20,22,-1,24,26,-1,28,30,32,34,36,38,-1,40,-1,42,44,46,-1,48,50,52,54,56,-1,-1,-1,-1,-1,-1,-1,-1,-1,-1,-1,-1,-1,-1,-1,-1,-1,-1,-1,-1,-1,-1],"split_conditions":[-1.05E2,1.95E2,-1.08E2,-7.12E2,-2.6E1,1.74E2,-1.39E2,-2.07E2,-7.2E1,1.2845308E-1,-9.1789864E-2,5.4E1,1.9E2,1.2595026E-1,-1.81E2,-1.59E2,-8.926827E-2,-2.48E2,-1.68E2,-1.46E2,-8.1E1,1E0,-1.13E2,6.3233845E-2,6.6E1,-5.0117243E-2,-1.67E2,-2E1,-6.3E1,-0E0,3.5E1,-7.3E1,-7.5E1,1E0,1.904E3,1.2733035E-1,-0E0,-0E0,-1.2245931E-1,-1.2821163E-1,-0E0,-0E0,1.2867625E-1,1.3656619E-1,-4.4104632E-2,-0E0,-1.1188916E-1,-1.2819132E-1,-8.888865E-2,-0E0,1.514567E-1,1.03893116E-1,-4.1310977E-2,-9.829684E-2,6.734394E-2,1.490482E-1,-0E0],"split_indices":[5881,3566,283,5926,1802,2682,5792,2929,3750,0,0,3000,3192,0,1718,3369,0,2923,2988,3605,5749,1952,147,0,3931,0,3886,2384,4932,0,5201,5743,3923,5858,2465,0,0,0,0,0,0,0,0,0,0,0,0,0,0,0,0,0,0,0,0,0,0],"split_type":[0,0,0,0,0,0,0,0,0,0,0,0,0,0,0,0,0,0,0,0,0,0,0,0,0,0,0,0,0,0,0,0,0,0,0,0,0,0,0,0,0,0,0,0,0,0,0,0,0,0,0,0,0,0,0,0,0],"sum_hessian":[7.697267E2,3.6328326E2,4.0644342E2,3.5197592E2,1.130734E1,3.651194E2,4.132404E1,9.647372E0,3.4232855E2,7.4041505E0,3.9031892E0,3.4200748E2,2.3111914E1,8.134151E0,3.3189888E1,5.9635434E0,3.6838286E0,1.4209926E1,3.2811862E2,5.286619E1,2.891413E2,7.5377626E0,1.5574152E1,1.6528804E0,3.1537006E1,1.5270962E0,4.4364476E0,4.4528112E0,9.757114E0,1.751837E0,3.263668E2,1.3302804E1,3.956339E1,1.2609406E1,2.765319E2,6.157852E0,1.3799107E0,1.1019199E0,1.4472232E1,3.053696E1,1.0000448E0,1.1973685E0,3.239079E0,2.893357E0,1.559454E0,1.0303158E0,8.726799E0,2.6575552E2,6.061128E1,1.1918484E0,1.2110955E1,8.722748E0,3.0840641E1,3.7450907E0,8.864316E0,2.739149E2,2.6169963E0],"tree_param":{"num_deleted":"0","num_feature":"6000","num_nodes":"57","size_leaf_vector":"1"}},{"base_weights":[-5.6418367E-3,-1.0718805E0,8.879424E-1,-1.11743E0,5.5801994E-1,1.0624157E0,-5.9824365E-1,-6.441151E-1,-1.1795692E0,1.2367337E-1,-6.770187E-2,5.1667184E-1,1.3434162E0,-1.0977211E0,1.0043955E0,4.803942E-2,-1.1389254E0,-1.1903319E0,-0E0,1.15936E-1,1.2244983E0,1.4089737E0,2.4113487E-2,2.0494461E-2,-1.2202426E-1,1.241795E-1,-0E0,7.90312E-1,-7.5633186E-1,-1.2044803E0,-0E0,-1.1996456E0,-0E0,7.6803267E-1,-3.9545757E-1,-2.559741E-1,1.382191E0,1.4258821E0,-1.8282657E-2,-7.7590996E-1,1.0922911E-1,-9.938813E-3,1.8203871E-1,-1.0144005E-1,-0E0,-0E0,-1.23781E-1,-2.339456E-2,-1.2171465E-1,-9.1900274E-2,1.0879421E-1,-7.345208E-2,8.0034606E-2,-8.976429E-2,3.9162338E-2,-0E0,1.4380598E-1,1.4376383E-1,-0E0,-0E0,-1.0038131E-1],"categories":[],"categories_nodes":[],"categories_segments":[],"categories_sizes":[],"default_left":[0,0,0,0,0,0,0,0,0,0,0,0,0,0,0,0,0,0,0,0,0,0,0,0,0,0,0,0,0,0,0,0,0,0,0,0,0,0,0,0,0,0,0,0,0,0,0,0,0,0,0,0,0,0,0,0,0,0,0,0,0],"id":6,"left_children":[1,3,5,7,9,11,13,15,17,-1,-1,19,21,23,25,27,29,31,-1,33,35,37,39,-1,-1,-1,-1,41,43,45,-1,47,-1,49,51,53,55,57,-1,59,-1,-1,-1,-1,-1,-1,-1,-1,-1,-1,-1,-1,-1,-1,-1,-1,-1,-1,-1,-1,-1],"loss_changes":[7.008227E2,2.6113129E1,1.04707855E2,7.051758E0,9.108202E0,5.2431152E1,3.483001E1,1.5560242E1,4.416321E0,0E0,0E0,3.3889427E1,1.8845184E1,6.5302963E0,3.5644264E0,1.1177297E1,2.4251366E0,3.5646362E0,0E0,2.789804E1,1.1769043E1,7.5054626E0,1.2151059E1,0E0,0E0,0E0,0E0,1.1361023E1,2.4615526E0,4.522705E-1,0E0,3.0393982E0,0E0,2.1179945E1,1.8990974E1,2.717424E0,4.267563E0,4.958374E0,0E0,1.9403543E0,0E0,0E0,0E0,0E0,0E0,0E0,0E0,0E0,0E0,0E0,0E0,0E0,0E0,0E0,0E0,0E0,0E0,0E0,0E0,0E0,0E0],"parents":[2147483647,0,0,1,1,2,2,3,3,4,4,5,5,6,6,7,7,8,8,11,11,12,12,13,13,14,14,15,15,16,16,17,17,19,19,20,20,21,21,22,22,27,27,28,28,29,29,31,31,33,33,34,34,35,35,36,36,37,37,39,39],"right_children":[2,4,6,8,10,12,14,16,18,-1,-1,20,22,24,26,28,30,32,-1,34,36,38,40,-1,-1,-1,-1,42,44,46,-1,48,-1,50,52,54,56,58,-1,60,-1,-1,-1,-1,-1,-1,-1,-1,-1,-1,-1,-1,-1,-1,-1,-1,-1,-1,-1,-1,-1],"split_conditions":[-1.16E2,1.96E2,-1.17E2,-8.8E1,-2E1,-8E0,7.6E1,-2.28E2,1.93E2,1.2367337E-1,-6.770187E-2,2.6E1,1.74E2,-1.54E2,8E0,-2.39E2,5.22E2,3.78E3,-0E0,-3.5E1,-1.11E2,2.01E2,4.87E2,2.0494461E-2,-1.2202426E-1,1.241795E-1,-0E0,4.7E1,1.22E2,-8.6E1,-0E0,-9.3E1,-0E0,-2.3E1,8.41E2,5.6E1,-2.51E2,1.726E3,-1.8282657E-2,-2.19E2,1.0922911E-1,-9.938813E-3,1.8203871E-1,-1.0144005E-1,-0E0,-0E0,-1.23781E-1,-2.339456E-2,-1.2171465E-1,-9.1900274E-2,1.0879421E-1,-7.345208E-2,8.0034606E-2,-8.976429E-2,3.9162338E-2,-0E0,1.4380598E-1,1.4376383E-1,-0E0,-0E0,-1.0038131E-1],"split_indices":[5995,3554,49,5890,1796,3421,3361,2833,3674,0,0,1643,2682,2984,2354,5131,5339,2949,0,5964,3024,5589,3000,0,0,0,0,5207,5877,5934,0,3720,0,2994,3028,33,4891,2261,0,1473,0,0,0,0,0,0,0,0,0,0,0,0,0,0,0,0,0,0,0,0,0],"split_type":[0,0,0,0,0,0,0,0,0,0,0,0,0,0,0,0,0,0,0,0,0,0,0,0,0,0,0,0,0,0,0,0,0,0,0,0,0,0,0,0,0,0,0,0,0,0,0,0,0,0,0,0,0,0,0,0,0,0,0,0,0],"sum_hessian":[7.333683E2,3.3479965E2,3.985686E2,3.2660037E2,8.199296E0,3.5755127E2,4.101735E1,4.1088364E1,2.85512E2,5.8130574E0,2.3862383E0,1.2370175E2,2.3384952E2,3.198725E1,9.0301E0,1.666243E1,2.4425934E1,2.834712E2,2.0408025E0,8.062978E1,4.307197E1,2.2199252E2,1.1856988E1,1.9904084E0,2.999684E1,7.8731575E0,1.1569424E0,9.321369E0,7.3410597E0,2.3405212E1,1.0207225E0,2.8154816E2,1.9230475E0,3.607844E1,4.4551342E1,3.475749E0,3.9596222E1,2.2038403E2,1.6084967E0,6.4006157E0,5.4563723E0,4.965371E0,4.355998E0,6.0290537E0,1.3120061E0,1.0014129E0,2.24038E1,6.284365E0,2.752638E2,4.954169E0,3.1124273E1,3.5661686E1,8.889656E0,2.327557E0,1.1481918E0,1.0294657E0,3.8566757E1,2.1917715E2,1.2068702E0,1.0533193E0,5.347296E0],"tree_param":{"num_deleted":"0","num_feature":"6000","num_nodes":"61","size_leaf_vector":"1"}},{"base_weights":[-5.8691534E-3,-1.0290543E0,8.3700407E-1,-1.0736564E0,5.1322025E-1,1.0000188E0,-5.677701E-1,-6.063221E-1,-1.1364632E0,1.16570055E-1,-6.440645E-2,5.2271235E-1,1.3026752E0,-1.0522331E0,9.3931776E-1,3.9047893E-2,-1.0932759E0,-0E0,-1.1476666E0,7.160861E-1,-9.138913E-1,1.3261732E0,-2.2754624E-1,1.9131066E-2,-1.1782533E-1,1.1786365E-1,-0E0,-6.6926897E-1,7.6440996E-1,-1.1961172E-1,-0E0,-1.1565918E0,7.0187873E-3,2.6398089E-2,1.077863E0,-1.1526865E-1,2.174858E-2,1.339579E0,-1.74541E-2,-4.9928594E-2,-0E0,1.9117964E-2,-1.0086384E-1,-1.5785335E-2,1.2622489E-1,-2.6007539E-2,1.6590439E-2,-1.16632156E-1,-0E0,1.2320625E-1,-3.2500714E-2,1.2229289E-1,-0E0,1.3519967E-1,-0E0],"categories":[],"categories_nodes":[],"categories_segments":[],"categories_sizes":[],"default_left":[0,0,0,0,0,0,0,0,0,0,0,0,0,0,0,0,0,0,0,0,0,0,0,0,0,0,0,0,0,0,0,0,0,0,0,0,0,0,0,0,0,0,0,0,0,0,0,0,0,0,0,0,0,0,0],"id":7,"left_children":[1,3,5,7,9,11,13,15,17,-1,-1,19,21,23,25,27,29,-1,31,33,35,37,39,-1,-1,-1,-1,41,43,-1,45,47,-1,49,51,-1,-1,53,-1,-1,-1,-1,-1,-1,-1,-1,-1,-1,-1,-1,-1,-1,-1,-1,-1],"loss_changes":[6.0290686E2,2.286267E1,8.863037E1,6.6163635E0,8.018453E0,4.7170227E1,3.0152203E1,1.3840716E1,4.3359375E0,0E0,0E0,3.834611E1,8.897003E0,6.0835037E0,3.3261003E0,9.608933E0,2.4163647E0,0E0,4.067505E0,2.9154182E1,5.5103617E0,5.5457764E0,4.147243E-1,0E0,0E0,0E0,0E0,3.550916E0,5.8127604E0,0E0,2.0651719E-1,3.389679E0,0E0,1.9839386E1,1.2717804E1,0E0,0E0,4.6764526E0,0E0,0E0,0E0,0E0,0E0,0E0,0E0,0E0,0E0,0E0,0E0,0E0,0E0,0E0,0E0,0E0,0E0],"parents":[2147483647,0,0,1,1,2,2,3,3,4,4,5,5,6,6,7,7,8,8,11,11,12,12,13,13,14,14,15,15,16,16,18,18,19,19,20,20,21,21,22,22,27,27,28,28,30,30,31,31,33,33,34,34,37,37],"right_children":[2,4,6,8,10,12,14,16,18,-1,-1,20,22,24,26,28,30,-1,32,34,36,38,40,-1,-1,-1,-1,42,44,-1,46,48,-1,50,52,-1,-1,54,-1,-1,-1,-1,-1,-1,-1,-1,-1,-1,-1,-1,-1,-1,-1,-1,-1],"split_conditions":[-1.16E2,1.96E2,-1.17E2,-8.8E1,-2E1,1.2E1,7.6E1,-2.28E2,-1.04E2,1.16570055E-1,-6.440645E-2,1.2E2,2.5E2,-1.54E2,6.2E1,-3.9E1,-1.78E2,-0E0,2.08E2,4.9E1,4.39E2,2E2,-6.9E1,1.9131066E-2,-1.1782533E-1,1.1786365E-1,-0E0,-1.13E2,1.5E1,-1.1961172E-1,1.5E1,3.78E3,7.0187873E-3,-8.2E1,3.2E1,-1.1526865E-1,2.174858E-2,1.79E3,-1.74541E-2,-4.9928594E-2,-0E0,1.9117964E-2,-1.0086384E-1,-1.5785335E-2,1.2622489E-1,-2.6007539E-2,1.6590439E-2,-1.16632156E-1,-0E0,1.2320625E-1,-3.2500714E-2,1.2229289E-1,-0E0,1.3519967E-1,-0E0],"split_indices":[5995,3554,49,5890,1796,3373,3361,2833,5964,0,0,2604,5979,2984,2606,4172,5995,0,3710,3006,2994,2340,104,0,0,0,0,5648,3070,0,612,2949,0,951,1178,0,0,2327,0,0,0,0,0,0,0,0,0,0,0,0,0,0,0,0,0],"split_type":[0,0,0,0,0,0,0,0,0,0,0,0,0,0,0,0,0,0,0,0,0,0,0,0,0,0,0,0,0,0,0,0,0,0,0,0,0,0,0,0,0,0,0,0,0,0,0,0,0,0,0,0,0,0,0],"sum_hessian":[6.9686957E2,3.1520264E2,3.8166693E2,3.0726874E2,7.9338913E0,3.4287814E2,3.8788765E1,3.9551067E1,2.6771768E2,5.6213684E0,2.312523E0,1.3539056E2,2.074876E2,3.0083557E1,8.705209E0,1.652129E1,2.3029778E1,1.9288356E0,2.6578885E2,1.20383934E2,1.5006628E1,2.0512457E2,2.3630269E0,1.9903008E0,2.8093256E1,7.5583906E0,1.1468177E0,7.700476E0,8.820814E0,2.0764238E1,2.2655396E0,2.647202E2,1.0686233E0,4.2740658E1,7.764327E1,1.3105539E1,1.9010886E0,2.0407529E2,1.0492784E0,1.3621529E0,1.0008738E0,1.4681358E0,6.2323403E0,2.6275084E0,6.193306E0,1.2213995E0,1.04414E0,2.6279718E2,1.9230475E0,9.722516E0,3.3018143E1,6.859602E1,9.047251E0,2.0288387E2,1.1914295E0],"tree_param":{"num_deleted":"0","num_feature":"6000","num_nodes":"55","size_leaf_vector":"1"}},{"base_weights":[-5.9597827E-3,-9.258873E-1,8.5223734E-1,-1.0182048E0,1.5651138E-1,9.917657E-1,-6.701501E-1,-0E0,-1.059336E0,1.3386791E0,-9.110428E-1,1.0985909E0,-3.5605E-1,9.812201E-2,-1.0591621E0,7.1933216E-1,-6.674797E-1,-5.781183E-1,-1.1279888E0,1.409141E-1,-0E0,3.1312503E-2,-1.15352176E-1,2.4391118E-1,1.235305E0,9.48773E-1,-1.0119665E0,4.37565E-3,-1.1526153E-1,1.1150126E0,-2.147133E-2,-0E0,-8.539684E-2,2.8176254E-2,-1.0611126E0,-1.1373533E0,-0E0,-8.669054E-2,1.1048645E0,-5.4549426E-2,1.2612244E0,1.0808386E-1,-0E0,-1.1671306E-1,1.1291807E-2,1.3244396E-1,-0E0,-4.5926884E-2,9.5007345E-2,-1.1627426E-1,-0E0,-1.18866146E-1,-7.611658E-2,9.480345E-2,-4.7936734E-2,1.3044104E-1,-5.611747E-3,1.274386E-1,-4.0942457E-2],"categories":[],"categories_nodes":[],"categories_segments":[],"categories_sizes":[],"default_left":[0,0,0,0,0,0,0,0,0,0,0,0,0,0,0,0,0,0,0,0,0,0,0,0,0,0,0,0,0,0,0,0,0,0,0,0,0,0,0,0,0,0,0,0,0,0,0,0,0,0,0,0,0,0,0,0,0,0,0],"id":8,"left_children":[1,3,5,7,9,11,13,15,17,19,21,23,25,-1,27,29,31,33,35,-1,-1,-1,-1,37,39,41,43,-1,-1,45,-1,-1,-1,47,49,51,-1,53,55,-1,57,-1,-1,-1,-1,-1,-1,-1,-1,-1,-1,-1,-1,-1,-1,-1,-1,-1,-1],"loss_changes":[5.232271E2,3.303528E1,7.369034E1,1.3408539E1,3.3442276E1,4.642157E1,1.957405E1,6.101595E0,7.07666E0,4.927559E-1,5.1759453E0,3.2382416E1,2.0850815E1,0E0,3.6561146E0,3.634611E0,9.315593E-1,1.2637544E1,2.9156494E0,0E0,0E0,0E0,0E0,1.3231722E1,1.29800415E1,8.5486794E-1,4.0503864E0,0E0,0E0,9.3094206E-1,0E0,0E0,0E0,8.828097E0,3.5405064E0,1.8793335E0,0E0,1.2520211E1,4.2692842E0,0E0,6.841156E0,0E0,0E0,0E0,0E0,0E0,0E0,0E0,0E0,0E0,0E0,0E0,0E0,0E0,0E0,0E0,0E0,0E0,0E0],"parents":[2147483647,0,0,1,1,2,2,3,3,4,4,5,5,6,6,7,7,8,8,9,9,10,10,11,11,12,12,14,14,15,15,16,16,17,17,18,18,23,23,24,24,25,25,26,26,29,29,33,33,34,34,35,35,37,37,38,38,40,40],"right_children":[2,4,6,8,10,12,14,16,18,20,22,24,26,-1,28,30,32,34,36,-1,-1,-1,-1,38,40,42,44,-1,-1,46,-1,-1,-1,48,50,52,-1,54,56,-1,58,-1,-1,-1,-1,-1,-1,-1,-1,-1,-1,-1,-1,-1,-1,-1,-1,-1,-1],"split_conditions":[-7.8E1,1.56E2,-8.2E1,-7E1,-2.6E1,1.82E2,-1.59E2,5.6E1,-8.8E1,1.17E2,-1.8E2,4.7E1,1.97E2,9.812201E-2,-8.2E2,2.91E2,-1.01E2,-2.3E2,1.13E2,1.409141E-1,-0E0,3.1312503E-2,-1.15352176E-1,7.7E1,-1.99E2,-5E0,3.91E2,4.37565E-3,-1.1526153E-1,-2.1E1,-2.147133E-2,-0E0,-8.539684E-2,1.36E2,8.6E1,2.9E1,-0E0,5E0,-5.1E1,-5.4549426E-2,1.75E2,1.0808386E-1,-0E0,-1.1671306E-1,1.1291807E-2,1.3244396E-1,-0E0,-4.5926884E-2,9.5007345E-2,-1.1627426E-1,-0E0,-1.18866146E-1,-7.611658E-2,9.480345E-2,-4.7936734E-2,1.3044104E-1,-5.611747E-3,1.274386E-1,-4.0942457E-2],"split_indices":[5905,3584,7,5964,1652,2718,3914,4750,5890,2880,3418,3000,3222,0,2271,5980,4826,2839,5550,0,0,0,0,1588,5275,386,2982,0,0,2270,0,0,0,1702,5196,744,0,334,2527,0,110,0,0,0,0,0,0,0,0,0,0,0,0,0,0,0,0,0,0],"split_type":[0,0,0,0,0,0,0,0,0,0,0,0,0,0,0,0,0,0,0,0,0,0,0,0,0,0,0,0,0,0,0,0,0,0,0,0,0,0,0,0,0,0,0,0,0,0,0,0,0,0,0,0,0,0,0,0,0,0,0],"sum_hessian":[6.606569E2,3.1938492E2,3.41272E2,2.951913E2,2.4193611E1,3.1354108E2,2.773094E1,1.0605602E1,2.8458572E2,1.180451E1,1.23891E1,2.9137418E2,2.2166891E1,4.5067353E0,2.3224205E1,5.7505827E0,4.8550196E0,3.8526134E1,2.4605959E2,1.0804144E1,1.0003659E0,1.318279E0,1.1070821E1,4.1573357E1,2.4980083E2,6.7560077E0,1.5410883E1,1.0198109E0,2.2204393E1,4.6553493E0,1.0952333E0,1.000604E0,3.8544154E0,1.6582125E1,2.194401E1,2.4426193E2,1.7976556E0,2.9849215E1,1.1724143E1,2.74261E0,2.4705821E2,5.7081957E0,1.0478119E0,1.4291034E1,1.11985E0,3.5389593E0,1.1163899E0,1.0465621E1,6.1165032E0,2.0727215E1,1.2167953E0,2.107058E2,3.355613E1,7.121846E0,2.272737E1,1.0634174E1,1.0899684E0,2.4595628E2,1.1019243E0],"tree_param":{"num_deleted":"0","num_feature":"6000","num_nodes":"59","size_leaf_vector":"1"}},{"base_weights":[-5.8691767E-3,-8.908504E-1,8.115744E-1,-9.8159385E-1,1.5152124E-1,1.0506936E0,-3.6335064E-3,-0E0,-1.0262513E0,1.2669433E0,-8.633268E-1,1.1077148E0,-5.113849E-1,-5.736038E-1,1.0862039E0,5.427426E-1,-6.874718E-1,-5.2347666E-1,-1.1010047E0,1.3338898E-1,-0E0,2.9604986E-2,-1.109933E-1,3.3546576E-1,1.2352614E0,-9.359562E-2,4.9441293E-2,-8.521636E-1,5.619048E-1,1.2105757E0,-2.5703644E-2,1.0423189E0,-3.3690464E-2,-0E0,-8.6200945E-2,-0E0,-1.0079529E0,-1.1109244E0,-0E0,-5.3473365E-1,9.1223896E-1,-5.1289238E-2,1.2646459E0,9.778329E-2,-1.0355693E0,1.0231643E-1,-3.82848E-2,-0E0,1.2550092E-1,-0E0,1.323696E-1,-4.980773E-2,8.2775496E-2,-1.1207459E-1,-0E0,-1.1569289E-1,-7.209742E-2,-1.0691013E-1,9.430036E-2,-2.0532249E-2,1.2724832E-1,1.2809557E-1,-0E0,3.474173E-2,-1.1872937E-1],"categories":[],"categories_nodes":[],"categories_segments":[],"categories_sizes":[],"default_left":[0,0,0,0,0,0,0,0,0,0,0,0,0,0,0,0,0,0,0,0,0,0,0,0,0,0,0,0,0,0,0,0,0,0,0,0,0,0,0,0,0,0,0,0,0,0,0,0,0,0,0,0,0,0,0,0,0,0,0,0,0,0,0,0,0],"id":9,"left_children":[1,3,5,7,9,11,13,15,17,19,21,23,25,27,29,31,33,35,37,-1,-1,-1,-1,39,41,-1,-1,43,45,47,-1,49,-1,-1,-1,51,53,55,-1,57,59,-1,61,-1,63,-1,-1,-1,-1,-1,-1,-1,-1,-1,-1,-1,-1,-1,-1,-1,-1,-1,-1,-1,-1],"loss_changes":[4.5276666E2,2.9454697E1,6.434679E1,1.2122101E1,2.8770147E1,2.3610321E1,4.5885555E1,5.2901316E0,7.7891846E0,3.708477E-1,4.785104E0,2.2055695E1,4.7228184E0,1.6471474E1,5.449301E0,4.510889E0,9.585426E-1,1.0204368E1,2.8083801E0,0E0,0E0,0E0,0E0,1.9477032E1,1.2084625E1,0E0,0E0,1.482057E1,5.2480297E0,1.0270195E0,0E0,1.9589725E0,0E0,0E0,0E0,8.319582E0,3.379692E0,1.3596802E0,0E0,1.2758358E1,1.073365E1,0E0,5.461426E0,0E0,9.27187E0,0E0,0E0,0E0,0E0,0E0,0E0,0E0,0E0,0E0,0E0,0E0,0E0,0E0,0E0,0E0,0E0,0E0,0E0,0E0,0E0],"parents":[2147483647,0,0,1,1,2,2,3,3,4,4,5,5,6,6,7,7,8,8,9,9,10,10,11,11,12,12,13,13,14,14,15,15,16,16,17,17,18,18,23,23,24,24,27,27,28,28,29,29,31,31,35,35,36,36,37,37,39,39,40,40,42,42,44,44],"right_children":[2,4,6,8,10,12,14,16,18,20,22,24,26,28,30,32,34,36,38,-1,-1,-1,-1,40,42,-1,-1,44,46,48,-1,50,-1,-1,-1,52,54,56,-1,58,60,-1,62,-1,64,-1,-1,-1,-1,-1,-1,-1,-1,-1,-1,-1,-1,-1,-1,-1,-1,-1,-1,-1,-1],"split_conditions":[-7.8E1,1.56E2,5E0,-6.1E1,-2.6E1,1.88E2,5.9E1,5.6E1,-8.6E1,1.17E2,-1.8E2,5.4E1,3.9E1,1.84E2,-2.7E1,7E1,-5.78E2,-2.3E2,1.37E2,1.3338898E-1,-0E0,2.9604986E-2,-1.109933E-1,-2.13E2,-1.99E2,-9.359562E-2,4.9441293E-2,-2.19E2,-2.02E2,-1.703E3,-2.5703644E-2,-2.6E2,-3.3690464E-2,-0E0,-8.6200945E-2,1.27E2,4.53E2,4.2E1,-0E0,2.44E2,-3.5E1,-5.1289238E-2,1.732E3,9.778329E-2,-1.11E2,1.0231643E-1,-3.82848E-2,-0E0,1.2550092E-1,-0E0,1.323696E-1,-4.980773E-2,8.2775496E-2,-1.1207459E-1,-0E0,-1.1569289E-1,-7.209742E-2,-1.0691013E-1,9.430036E-2,-2.0532249E-2,1.2724832E-1,1.2809557E-1,-0E0,3.474173E-2,-1.1872937E-1],"split_indices":[5905,3584,2336,5970,1652,2532,3295,4750,5908,2880,3418,3000,3151,1587,1363,4259,5667,2839,5592,0,0,0,0,5588,5275,0,0,3775,301,2543,0,5565,0,0,0,1708,1535,5627,0,3436,3000,0,2291,0,2978,0,0,0,0,0,0,0,0,0,0,0,0,0,0,0,0,0,0,0,0],"split_type":[0,0,0,0,0,0,0,0,0,0,0,0,0,0,0,0,0,0,0,0,0,0,0,0,0,0,0,0,0,0,0,0,0,0,0,0,0,0,0,0,0,0,0,0,0,0,0,0,0,0,0,0,0,0,0,0,0,0,0,0,0,0,0,0,0],"sum_hessian":[6.237588E2,3.0005096E2,3.2370782E2,2.769581E2,2.3092875E1,2.5101668E2,7.2691154E1,1.2154534E1,2.6480356E2,1.1352393E1,1.1740482E1,2.4307468E2,7.9419985E0,4.864285E1,2.404831E1,6.86052E0,5.294015E0,3.704273E1,2.2776083E2,1.0352027E1,1.0003659E0,1.3128415E0,1.0427641E1,3.608196E1,2.0699272E2,6.332552E0,1.6094464E0,3.9968166E1,8.674684E0,2.2782125E1,1.2661843E0,4.9826336E0,1.8778863E0,1.0007641E0,4.2932506E0,1.7737848E1,1.930488E1,2.259693E2,1.7915277E0,1.3720471E1,2.2361486E1,2.587205E0,2.0440552E2,2.7495563E0,3.721861E1,6.48431E0,2.1903732E0,1.002144E0,2.1779982E1,1.1550922E0,3.8275416E0,1.0906648E1,6.831201E0,1.811422E1,1.1906612E0,1.9807056E2,2.7898746E1,1.0776718E1,2.943753E0,4.879205E0,1.748228E1,2.0253656E2,1.86895E0,2.9003992E0,3.431821E1],"tree_param":{"num_deleted":"0","num_feature":"6000","num_nodes":"65","size_leaf_vector":"1"}},{"base_weights":[-5.677572E-3,-8.918368E-1,7.471193E-1,-9.376502E-1,1.6639127E-1,9.8649764E-1,-2.0530803E-2,5.989243E-2,-9.783272E-1,1.0244342E-1,-8.205824E-2,1.0387812E0,-6.243951E-1,-5.4028744E-1,1.0520521E0,7.242055E-1,-4.975105E-1,-1.0292172E0,-1.4329682E-1,2.5620574E-1,1.1761767E0,-8.899986E-2,4.2198496E-3,6.386136E-1,-7.901342E-1,1.1756806E0,-2.448985E-2,1.185357E-1,-9.028595E-3,-7.52016E-2,-0E0,-1.1133856E0,-6.4927465E-1,6.0135084E-1,-7.518133E-1,-6.229739E-1,7.695931E-1,-5.3782493E-2,1.2015498E0,-2.6493123E-2,9.450873E-1,8.373514E-2,-9.280504E-1,-0E0,1.2198079E-1,-0E0,-1.1404767E-1,-7.831676E-3,-1.09084345E-1,1.3882133E-1,-7.9463655E-3,5.6233592E-3,-9.790131E-2,-1.0773323E-1,6.922919E-2,1.1919949E-1,-0E0,1.2178659E-1,-0E0,1.0371627E-1,-0E0,-1.1402364E-1,7.358815E-3],"categories":[],"categories_nodes":[],"categories_segments":[],"categories_sizes":[],"default_left":[0,0,0,0,0,0,0,0,0,0,0,0,0,0,0,0,0,0,0,0,0,0,0,0,0,0,0,0,0,0,0,0,0,0,0,0,0,0,0,0,0,0,0,0,0,0,0,0,0,0,0,0,0,0,0,0,0,0,0,0,0,0,0],"id":10,"left_children":[1,3,5,7,9,11,13,15,17,-1,-1,19,21,23,25,27,29,31,33,35,37,-1,-1,39,41,43,-1,-1,-1,-1,-1,45,47,49,51,53,55,-1,57,-1,59,-1,61,-1,-1,-1,-1,-1,-1,-1,-1,-1,-1,-1,-1,-1,-1,-1,-1,-1,-1,-1,-1],"loss_changes":[3.9346014E2,1.408577E1,5.9454132E1,1.1576157E1,1.0534636E1,2.1576233E1,4.2213333E1,4.368842E0,9.388489E0,0E0,0E0,2.3735916E1,2.2450614E0,1.6038822E1,5.130106E0,3.4127004E0,1.1240894E0,5.0688934E0,8.199723E0,1.7661558E1,1.0013763E1,0E0,0E0,3.418829E0,1.0797672E1,9.557419E-1,0E0,0E0,0E0,0E0,0E0,6.7809296E0,1.0694477E1,5.3598394E0,2.888935E0,9.347202E0,7.1689663E0,0E0,5.048004E0,0E0,2.49547E-1,0E0,1.0039616E1,0E0,0E0,0E0,0E0,0E0,0E0,0E0,0E0,0E0,0E0,0E0,0E0,0E0,0E0,0E0,0E0,0E0,0E0,0E0,0E0],"parents":[2147483647,0,0,1,1,2,2,3,3,4,4,5,5,6,6,7,7,8,8,11,11,12,12,13,13,14,14,15,15,16,16,17,17,18,18,19,19,20,20,23,23,24,24,25,25,31,31,32,32,33,33,34,34,35,35,36,36,38,38,40,40,42,42],"right_children":[2,4,6,8,10,12,14,16,18,-1,-1,20,22,24,26,28,30,32,34,36,38,-1,-1,40,42,44,-1,-1,-1,-1,-1,46,48,50,52,54,56,-1,58,-1,60,-1,62,-1,-1,-1,-1,-1,-1,-1,-1,-1,-1,-1,-1,-1,-1,-1,-1,-1,-1,-1,-1],"split_conditions":[-1.07E2,1.83E2,5E0,-7.2E1,-5.8E1,1.6E2,5.9E1,-3.8E1,5.1E1,1.0244342E-1,-8.205824E-2,5.4E1,4E1,-3.2E1,-2.7E1,1.62E2,4.1E1,2E1,-2.49E2,-1.94E2,-1.37E2,-8.899986E-2,4.2198496E-3,-1.5E2,-3.86E2,-1.703E3,-2.448985E-2,1.185357E-1,-9.028595E-3,-7.52016E-2,-0E0,-6.64E2,-2.34E2,-4.7E1,-6.62E2,2.52E2,-6E1,-5.3782493E-2,1.732E3,-2.6493123E-2,1.94E2,8.373514E-2,3.09E2,-0E0,1.2198079E-1,-0E0,-1.1404767E-1,-7.831676E-3,-1.09084345E-1,1.3882133E-1,-7.9463655E-3,5.6233592E-3,-9.790131E-2,-1.0773323E-1,6.922919E-2,1.1919949E-1,-0E0,1.2178659E-1,-0E0,1.0371627E-1,-0E0,-1.1402364E-1,7.358815E-3],"split_indices":[5431,3566,2336,5970,1982,2124,3295,3008,5976,0,0,3000,3139,632,1363,4918,5786,5831,2863,4148,5971,0,0,1842,4623,2543,0,0,0,0,0,5997,2845,3818,2555,3460,1893,0,2291,0,537,0,1923,0,0,0,0,0,0,0,0,0,0,0,0,0,0,0,0,0,0,0,0],"split_type":[0,0,0,0,0,0,0,0,0,0,0,0,0,0,0,0,0,0,0,0,0,0,0,0,0,0,0,0,0,0,0,0,0,0,0,0,0,0,0,0,0,0,0,0,0,0,0,0,0,0,0,0,0,0,0,0,0,0,0,0,0,0,0],"sum_hessian":[5.8759296E2,2.704155E2,3.171775E2,2.602093E2,1.0206204E1,2.425577E2,7.4619804E1,9.213202E0,2.5099608E2,5.981406E0,4.2247977E0,2.3587788E2,6.6797953E0,5.12254E1,2.3394407E1,4.885475E0,4.327727E0,2.3523015E2,1.5765942E1,3.6742626E1,1.9913527E2,5.6096544E0,1.0701408E0,7.9858274E0,4.323957E1,2.2147772E1,1.2466359E0,3.6125407E0,1.2729344E0,3.3194861E0,1.0082408E0,1.8883525E2,4.6394886E1,6.3562136E0,9.409728E0,1.2748839E1,2.3993786E1,2.0353436E0,1.9709991E2,1.2305506E0,6.755277E0,2.4153166E0,4.0824253E1,1.002144E0,2.1145628E1,3.698341E0,1.8513692E2,2.1734165E1,2.4660723E1,3.1478343E0,3.2083795E0,1.2642925E0,8.145435E0,1.0175068E1,2.5737717E0,1.446405E1,9.529736E0,1.9523097E2,1.86895E0,5.6714134E0,1.0838635E0,3.439752E1,6.426737E0],"tree_param":{"num_deleted":"0","num_feature":"6000","num_nodes":"63","size_leaf_vector":"1"}},{"base_weights":[-5.38951E-3,-8.2942456E-1,7.4461424E-1,-8.837903E-1,6.993427E-1,8.850573E-1,-4.9904794E-1,1.0934106E-1,-9.270949E-1,1.0356311E-1,-1.1742623E-2,1.2847926E-1,1.0478547E0,-1.0147139E0,7.0695794E-1,7.3687696E-1,-6.418119E-2,-3.8978094E-1,-1.0035638E0,1.0044775E0,-1.4236253E-1,1.108996E0,-9.063283E-2,-0E0,-1.1511781E-1,9.631586E-2,-1.2038264E-2,1.0976418E-1,-1.6483504E-2,6.258099E-2,-8.948827E-1,-1.0232897E0,1.1661044E-1,1.17637254E-1,-0E0,-5.303165E-1,6.7164826E-1,-6.572363E-2,1.1415782E0,6.548845E-2,-6.510263E-2,-1.05841994E-1,-0E0,-1.046437E-1,-0E0,4.910768E-2,-0E0,3.6240708E-2,-9.355307E-2,9.9939466E-2,-3.172633E-2,-4.4305306E-2,1.1640809E-1],"categories":[],"categories_nodes":[],"categories_segments":[],"categories_sizes":[],"default_left":[0,0,0,0,0,0,0,0,0,0,0,0,0,0,0,0,0,0,0,0,0,0,0,0,0,0,0,0,0,0,0,0,0,0,0,0,0,0,0,0,0,0,0,0,0,0,0,0,0,0,0,0,0],"id":11,"left_children":[1,3,5,7,9,11,13,15,17,-1,-1,19,21,23,25,27,-1,29,31,33,35,37,-1,-1,-1,-1,-1,-1,-1,39,41,43,45,-1,-1,47,49,-1,51,-1,-1,-1,-1,-1,-1,-1,-1,-1,-1,-1,-1,-1,-1],"loss_changes":[3.4348956E2,2.2859589E1,5.152513E1,1.1986908E1,3.5228791E0,3.0945587E1,1.9289543E1,5.60333E0,8.391525E0,0E0,0E0,1.2536063E1,2.6811172E1,3.8371468E0,2.8250718E0,3.3944077E0,0E0,8.684341E0,5.766678E0,2.511756E0,1.1939573E1,1.3246704E1,0E0,0E0,0E0,0E0,0E0,0E0,0E0,7.9917765E0,3.4117298E0,4.7051086E0,6.028991E-1,0E0,0E0,1.0510885E1,4.7565227E0,0E0,8.57785E0,0E0,0E0,0E0,0E0,0E0,0E0,0E0,0E0,0E0,0E0,0E0,0E0,0E0,0E0],"parents":[2147483647,0,0,1,1,2,2,3,3,4,4,5,5,6,6,7,7,8,8,11,11,12,12,13,13,14,14,15,15,17,17,18,18,19,19,20,20,21,21,29,29,30,30,31,31,32,32,35,35,36,36,38,38],"right_children":[2,4,6,8,10,12,14,16,18,-1,-1,20,22,24,26,28,-1,30,32,34,36,38,-1,-1,-1,-1,-1,-1,-1,40,42,44,46,-1,-1,48,50,-1,52,-1,-1,-1,-1,-1,-1,-1,-1,-1,-1,-1,-1,-1,-1],"split_conditions":[-7.7E1,2.15E2,1.5E2,-6.4E1,1.7E1,5.4E1,4.75E2,-2.4E1,-8.6E1,1.0356311E-1,-1.1742623E-2,-1.21E2,1.75E2,1.12E2,-9.1E1,7.3E1,-6.418119E-2,-2.3E2,2.2E2,-1.37E2,0E0,-1.19E2,-9.063283E-2,-0E0,-1.1511781E-1,9.631586E-2,-1.2038264E-2,1.0976418E-1,-1.6483504E-2,-2.41E2,5.5E1,8E1,7E0,1.17637254E-1,-0E0,-2E1,-1.08E2,-6.572363E-2,-2.25E2,6.548845E-2,-6.510263E-2,-1.05841994E-1,-0E0,-1.046437E-1,-0E0,4.910768E-2,-0E0,3.6240708E-2,-9.355307E-2,9.9939466E-2,-3.172633E-2,-4.4305306E-2,1.1640809E-1],"split_indices":[5719,3344,2664,5892,1430,3000,3000,818,5908,0,0,3599,110,2592,1543,1894,0,2839,3512,2221,977,5971,0,0,0,0,0,0,0,5125,5202,5334,1776,0,0,935,1555,0,30,0,0,0,0,0,0,0,0,0,0,0,0,0,0],"split_type":[0,0,0,0,0,0,0,0,0,0,0,0,0,0,0,0,0,0,0,0,0,0,0,0,0,0,0,0,0,0,0,0,0,0,0,0,0,0,0,0,0,0,0,0,0,0,0,0,0,0,0,0,0],"sum_hessian":[5.536454E2,2.6438782E2,2.8925757E2,2.5634766E2,8.040175E0,2.6088864E2,2.8368935E1,9.682204E0,2.4666545E2,6.372713E0,1.6674622E0,4.7601097E1,2.1328754E2,2.0563963E1,7.8049726E0,6.01085E0,3.6713538E0,3.3119995E1,2.1354546E2,1.1473903E1,3.6127193E1,2.0773235E2,5.555185E0,1.913995E0,1.8649967E1,6.757059E0,1.0479133E0,4.9300914E0,1.0807587E0,1.6889925E1,1.6230072E1,2.1081233E2,2.7331207E0,9.909845E0,1.5640581E0,2.5534544E1,1.0592652E1,2.8595088E0,2.0487283E2,1.0040116E1,6.8498077E0,1.4362454E1,1.867618E0,2.0584209E2,4.9702435E0,1.7105316E0,1.022589E0,7.234374E0,1.8300169E1,8.707435E0,1.8852177E0,1.9846627E0,2.0288817E2],"tree_param":{"num_deleted":"0","num_feature":"6000","num_nodes":"53","size_leaf_vector":"1"}},{"base_weights":[-5.940301E-3,-8.626442E-1,6.604145E-1,-9.093091E-1,2.9334393E-1,2.533485E-1,1.0853589E0,-9.942583E-1,-4.3053818E-1,1.0473279E-1,-6.427195E-2,5.941774E-1,-5.3098196E-1,1.1593999E0,-7.1368404E-2,7.025813E-2,-1.0119277E0,1.4868961E-1,-8.896346E-1,2.201627E-1,1.0888041E0,8.9451075E-1,-7.065366E-1,-0E0,1.1787752E0,4.108276E-1,-7.5827956E-2,5.0645985E-2,-0E0,-1.0380774E0,-0E0,8.2982814E-1,-7.938245E-2,-9.5458484E-1,-0E0,-6.697085E-1,7.2018814E-1,1.1872729E0,-3.48276E-2,1.0651493E-1,-0E0,-1.0118458E0,2.1266308E-1,-2.5298506E-2,3.502239E-2,1.1921746E0,-0E0,7.087219E-2,-0E0,-0E0,-1.0686151E-1,8.76367E-2,-6.517514E-2,-0E0,1.8256809E-1,-0E0,-9.8584816E-2,2.8771875E-2,-1.0268193E-1,8.695584E-2,-5.2063175E-2,-0E0,1.2146723E-1,-1.1470815E-1,1.3390948E-2,7.1273044E-2,-5.3196E-2,2.1567984E-2,1.2080228E-1],"categories":[],"categories_nodes":[],"categories_segments":[],"categories_sizes":[],"default_left":[0,0,0,0,0,0,0,0,0,0,0,0,0,0,0,0,0,0,0,0,0,0,0,0,0,0,0,0,0,0,0,0,0,0,0,0,0,0,0,0,0,0,0,0,0,0,0,0,0,0,0,0,0,0,0,0,0,0,0,0,0,0,0,0,0,0,0,0,0],"id":12,"left_children":[1,3,5,7,9,11,13,15,17,-1,-1,19,21,23,25,27,29,31,33,35,37,39,41,43,45,47,-1,-1,-1,49,51,53,-1,55,-1,57,59,61,-1,-1,-1,63,65,-1,-1,67,-1,-1,-1,-1,-1,-1,-1,-1,-1,-1,-1,-1,-1,-1,-1,-1,-1,-1,-1,-1,-1,-1,-1],"loss_changes":[2.9863577E2,1.3255936E1,4.9138985E1,7.157715E0,7.305934E0,4.1107788E1,1.3335999E1,4.504242E0,1.0691957E1,0E0,0E0,1.835114E1,1.1903421E1,2.605194E0,3.5322003E0,5.084693E-1,4.5263214E0,1.1107351E1,1.6777611E0,2.8857334E1,7.607788E0,4.162736E-1,1.2788258E1,4.3332344E-1,2.6728973E0,1.1267338E0,0E0,0E0,0E0,4.900467E0,3.8877225E0,1.0020536E1,0E0,2.799759E-1,0E0,8.795705E0,8.578026E0,1.3330231E0,0E0,0E0,0E0,6.20002E0,4.4585686E0,0E0,0E0,3.3988953E-1,0E0,0E0,0E0,0E0,0E0,0E0,0E0,0E0,0E0,0E0,0E0,0E0,0E0,0E0,0E0,0E0,0E0,0E0,0E0,0E0,0E0,0E0,0E0],"parents":[2147483647,0,0,1,1,2,2,3,3,4,4,5,5,6,6,7,7,8,8,11,11,12,12,13,13,14,14,15,15,16,16,17,17,18,18,19,19,20,20,21,21,22,22,23,23,24,24,25,25,29,29,30,30,31,31,33,33,35,35,36,36,37,37,41,41,42,42,45,45],"right_children":[2,4,6,8,10,12,14,16,18,-1,-1,20,22,24,26,28,30,32,34,36,38,40,42,44,46,48,-1,-1,-1,50,52,54,-1,56,-1,58,60,62,-1,-1,-1,64,66,-1,-1,68,-1,-1,-1,-1,-1,-1,-1,-1,-1,-1,-1,-1,-1,-1,-1,-1,-1,-1,-1,-1,-1,-1,-1],"split_conditions":[-1.16E2,1.81E2,3.7E1,7.2E1,-6.2E1,5E0,-1.2E1,-1.315E3,-2.49E2,1.0473279E-1,-6.427195E-2,6.1E1,-2.1E2,-1.675E3,-3E1,-1.5E2,3.89E2,8.5E1,9.8E1,-1.8E1,-1.14E2,1.89E2,1.54E2,-3.69E2,1.16E3,1.7E1,-7.5827956E-2,5.0645985E-2,-0E0,-7.2E1,-8.1E1,1.8E1,-7.938245E-2,-5.36E2,-0E0,-5.9E1,1.45E2,-1.28E2,-3.48276E-2,1.0651493E-1,-0E0,4.1E1,1.3E1,-2.5298506E-2,3.502239E-2,-4E1,-0E0,7.087219E-2,-0E0,-0E0,-1.0686151E-1,8.76367E-2,-6.517514E-2,-0E0,1.8256809E-1,-0E0,-9.8584816E-2,2.8771875E-2,-1.0268193E-1,8.695584E-2,-5.2063175E-2,-0E0,1.2146723E-1,-1.1470815E-1,1.3390948E-2,7.1273044E-2,-5.3196E-2,2.1567984E-2,1.2080228E-1],"split_indices":[5995,3596,3349,5369,1946,2336,1585,2831,2869,0,0,5990,3769,2531,2366,2881,1961,3527,5754,5761,301,3045,1611,2242,2189,5975,0,0,0,3768,2973,750,0,4583,0,243,2454,3006,0,0,0,3991,4788,0,0,5945,0,0,0,0,0,0,0,0,0,0,0,0,0,0,0,0,0,0,0,0,0,0,0],"split_type":[0,0,0,0,0,0,0,0,0,0,0,0,0,0,0,0,0,0,0,0,0,0,0,0,0,0,0,0,0,0,0,0,0,0,0,0,0,0,0,0,0,0,0,0,0,0,0,0,0,0,0,0,0,0,0,0,0,0,0,0,0,0,0,0,0,0,0,0,0],"sum_hessian":[5.207728E2,2.283715E2,2.9240134E2,2.2054692E2,7.824586E0,1.5135939E2,1.4104195E2,1.8462349E2,3.5923443E1,4.859653E0,2.9649327E0,1.0656795E2,4.4791435E1,1.3336743E2,7.6745234E0,2.0418007E0,1.8258168E2,1.5219457E1,2.0703985E1,6.2656628E1,4.391132E1,3.8377302E0,4.0953705E1,2.5059755E0,1.3086145E2,3.8899767E0,3.7845469E0,1.040862E0,1.0009388E0,1.7764954E2,4.932142E0,9.5200405E0,5.6994166E0,1.9692171E1,1.0118132E0,2.1699615E1,4.0957012E1,4.1909374E1,2.0019472E0,2.778773E0,1.0589571E0,3.148363E1,9.470076E0,1.0350224E0,1.470953E0,1.2979465E2,1.0668011E0,2.8863475E0,1.0036291E0,5.7732663E0,1.7187627E2,1.747612E0,3.1845298E0,5.340257E0,4.1797833E0,1.0035027E0,1.868867E1,5.1870375E0,1.6512579E1,3.7542732E1,3.414279E0,1.0105028E0,4.089887E1,2.8939478E1,2.544152E0,6.49441E0,2.9756656E0,3.3139157E0,1.26480736E2],"tree_param":{"num_deleted":"0","num_feature":"6000","num_nodes":"69","size_leaf_vector":"1"}},{"base_weights":[-5.4600234E-3,-8.335995E-1,6.327308E-1,-8.794787E-1,2.686106E-1,2.4602479E-1,1.0618335E0,-9.661225E-1,-4.0610468E-1,9.99719E-2,-6.1539736E-2,6.6094923E-1,-3.0850944E-1,1.1052017E0,-5.8461398E-2,-1.005557E0,-1.0889702E-1,5.347743E-2,-9.285286E-1,-1.9308357E-1,8.3917516E-1,-4.95467E-1,8.861838E-1,1.1261821E0,-2.3852183E-2,6.5645883E-3,-1.0243827E0,8.480843E-1,-6.9800395E-1,7.740305E-1,-6.946284E-1,-0E0,-1.0006945E0,-9.846505E-1,7.5187206E-1,9.3668646E-1,-3.140675E-1,7.9635155E-1,-6.747047E-1,-0E0,9.732559E-2,1.1379051E0,-0E0,1.6205363E-2,-1.0402464E-1,-0E0,1.62299E-1,-8.330532E-2,-0E0,-0E0,1.8899806E-1,-8.928019E-2,-0E0,-0E0,-1.04547314E-1,4.5689518E-4,-1.2437383E-1,9.553904E-2,-0E0,-0E0,1.0666753E-1,-7.218647E-2,2.3212938E-2,-0E0,1.1061876E-1,-8.618623E-2,5.8967162E-2,4.009202E-2,1.1822327E-1],"categories":[],"categories_nodes":[],"categories_segments":[],"categories_sizes":[],"default_left":[0,0,0,0,0,0,0,0,0,0,0,0,0,0,0,0,0,0,0,0,0,0,0,0,0,0,0,0,0,0,0,0,0,0,0,0,0,0,0,0,0,0,0,0,0,0,0,0,0,0,0,0,0,0,0,0,0,0,0,0,0,0,0,0,0,0,0,0,0],"id":13,"left_children":[1,3,5,7,9,11,13,15,17,-1,-1,19,21,23,-1,25,27,29,31,33,35,37,39,41,-1,-1,43,45,47,49,51,-1,53,55,57,59,61,63,65,-1,-1,67,-1,-1,-1,-1,-1,-1,-1,-1,-1,-1,-1,-1,-1,-1,-1,-1,-1,-1,-1,-1,-1,-1,-1,-1,-1,-1,-1],"loss_changes":[2.6022034E2,1.1709518E1,4.442543E1,6.738922E0,6.4795403E0,3.4683365E1,1.0439209E1,4.615341E0,9.469179E0,0E0,0E0,1.3927105E1,1.4149063E1,4.749771E0,0E0,4.3313446E0,5.9857373E0,1.0783398E1,1.206562E0,1.1987623E1,9.065712E0,1.3371261E1,3.756981E-1,2.0569E0,0E0,0E0,4.0967865E0,3.6341555E0,8.1161785E-1,1.0753721E1,1.2134137E0,0E0,4.1368484E-1,3.5571117E0,1.3413587E0,8.346832E0,1.9043725E0,2.5655632E0,1.2696785E1,0E0,0E0,2.039856E0,0E0,0E0,0E0,0E0,0E0,0E0,0E0,0E0,0E0,0E0,0E0,0E0,0E0,0E0,0E0,0E0,0E0,0E0,0E0,0E0,0E0,0E0,0E0,0E0,0E0,0E0,0E0],"parents":[2147483647,0,0,1,1,2,2,3,3,4,4,5,5,6,6,7,7,8,8,11,11,12,12,13,13,15,15,16,16,17,17,18,18,19,19,20,20,21,21,22,22,23,23,26,26,27,27,28,28,29,29,30,30,32,32,33,33,34,34,35,35,36,36,37,37,38,38,41,41],"right_children":[2,4,6,8,10,12,14,16,18,-1,-1,20,22,24,-1,26,28,30,32,34,36,38,40,42,-1,-1,44,46,48,50,52,-1,54,56,58,60,62,64,66,-1,-1,68,-1,-1,-1,-1,-1,-1,-1,-1,-1,-1,-1,-1,-1,-1,-1,-1,-1,-1,-1,-1,-1,-1,-1,-1,-1,-1,-1],"split_conditions":[-1.16E2,1.81E2,2.9E1,7.2E1,-6.2E1,-3E1,1.85E2,6.5E1,-2.16E2,9.99719E-2,-6.1539736E-2,-2.39E2,8.8E2,4.01E2,-5.8461398E-2,-6.1E2,-2.4E2,-2.44E2,5E0,-9.6E1,1.59E2,-2.14E2,-1.41E2,2.43E2,-2.3852183E-2,6.5645883E-3,-9.2E1,0E0,5.9E1,1.9E1,1.3E1,-0E0,-1.068E3,-1.94E2,7.8E1,1E1,4.01E2,-4.6E1,3.5E1,-0E0,9.732559E-2,4.6E1,-0E0,1.6205363E-2,-1.0402464E-1,-0E0,1.62299E-1,-8.330532E-2,-0E0,-0E0,1.8899806E-1,-8.928019E-2,-0E0,-0E0,-1.04547314E-1,4.5689518E-4,-1.2437383E-1,9.553904E-2,-0E0,-0E0,1.0666753E-1,-7.218647E-2,2.3212938E-2,-0E0,1.1061876E-1,-8.618623E-2,5.8967162E-2,4.009202E-2,1.1822327E-1],"split_indices":[5995,3596,3457,5369,1946,2372,638,3876,3379,0,0,5336,2475,5967,0,5771,2863,3595,3006,2816,2568,3757,3755,888,0,0,5334,234,3650,1518,1377,0,2363,2512,5044,3000,3000,5719,4321,0,0,3000,0,0,0,0,0,0,0,0,0,0,0,0,0,0,0,0,0,0,0,0,0,0,0,0,0,0,0],"split_type":[0,0,0,0,0,0,0,0,0,0,0,0,0,0,0,0,0,0,0,0,0,0,0,0,0,0,0,0,0,0,0,0,0,0,0,0,0,0,0,0,0,0,0,0,0,0,0,0,0,0,0,0,0,0,0,0,0,0,0,0,0,0,0,0,0,0,0,0,0],"sum_hessian":[4.89987E2,2.1380573E2,2.761813E2,2.0632677E2,7.478953E0,1.473204E2,1.2886089E2,1.7173914E2,3.458763E1,4.6409926E0,2.8379605E0,8.51896E1,6.2130814E1,1.2646582E2,2.3950598E0,1.629055E2,8.833634E0,1.785972E1,1.6727911E1,1.3725371E1,7.1464226E1,5.4953457E1,7.177356E0,1.2541376E2,1.0520668E0,1.8531706E0,1.6105234E2,2.5515866E0,6.2820477E0,9.76063E0,8.099091E0,1.2598398E0,1.5468072E1,8.021878E0,5.703493E0,6.686539E1,4.5988364E0,5.5963974E0,4.935706E1,1.0010899E0,6.1762657E0,1.24410995E2,1.0027608E0,1.1716499E0,1.5988068E2,1.2021576E0,1.3494289E0,5.281905E0,1.0001429E0,5.9452505E0,3.8153796E0,6.0302806E0,2.0688097E0,1.0019937E0,1.4466078E1,1.0677577E0,6.95412E0,4.621259E0,1.0822339E0,8.196829E0,5.866856E1,3.4970891E0,1.1017473E0,1.0810676E0,4.51533E0,4.3959297E1,5.3977647E0,8.908189E0,1.1550281E2],"tree_param":{"num_deleted":"0","num_feature":"6000","num_nodes":"69","size_leaf_vector":"1"}},{"base_weights":[-4.2613177E-3,-7.4186075E-1,6.608113E-1,-8.156029E-1,2.430331E-1,7.8504837E-1,-5.221398E-1,2.277679E-1,-8.626812E-1,1.0515758E-1,-5.8444434E-1,2.6471445E-1,1.0266902E0,-9.493208E-1,5.3754896E-1,6.855275E-1,-4.9708407E-2,-0E0,-9.1239005E-1,2.3216946E-2,-8.9888595E-2,-2.5175693E-2,9.1911733E-1,1.0798464E0,-7.178089E-2,-1.0702366E-1,-0E0,7.948913E-2,-0E0,-0E0,1.01085834E-1,-5.5427325E-1,6.839141E-1,-9.9532163E-1,-4.3129775E-1,5.7214373E-1,-4.3034625E-1,1.0353973E0,-2.1464614E-2,-4.4034075E-2,1.1096455E0,2.6032705E-2,-8.692172E-2,-1.3105104E-2,1.12874284E-1,-1.0167785E-1,2.5066301E-2,3.9794724E-2,-8.429822E-2,-2.6144136E-2,8.79647E-2,1.6644381E-2,-9.2569694E-2,1.1504095E-1,-0E0,1.1274735E-1,-0E0],"categories":[],"categories_nodes":[],"categories_segments":[],"categories_sizes":[],"default_left":[0,0,0,0,0,0,0,0,0,0,0,0,0,0,0,0,0,0,0,0,0,0,0,0,0,0,0,0,0,0,0,0,0,0,0,0,0,0,0,0,0,0,0,0,0,0,0,0,0,0,0,0,0,0,0,0,0],"id":14,"left_children":[1,3,5,7,9,11,13,15,17,-1,19,21,23,25,27,29,-1,31,33,-1,-1,35,37,39,-1,-1,-1,-1,-1,-1,-1,41,43,45,47,49,51,53,-1,-1,55,-1,-1,-1,-1,-1,-1,-1,-1,-1,-1,-1,-1,-1,-1,-1,-1],"loss_changes":[2.2739651E2,1.6779602E1,3.6379982E1,1.0962006E1,1.1237823E1,2.622847E1,1.1300637E1,3.441883E0,8.160751E0,0E0,2.8098722E0,1.4719143E1,1.4979935E1,2.8236456E0,1.6141332E0,2.43971E0,0E0,4.966604E0,5.6141815E0,0E0,0E0,1.2286179E1,4.1306725E0,7.763626E0,0E0,0E0,0E0,0E0,0E0,0E0,0E0,2.7898653E0,3.1808038E0,5.222687E0,1.138643E1,5.9171467E0,1.0242905E1,1.9326477E0,0E0,0E0,3.9346619E0,0E0,0E0,0E0,0E0,0E0,0E0,0E0,0E0,0E0,0E0,0E0,0E0,0E0,0E0,0E0,0E0],"parents":[2147483647,0,0,1,1,2,2,3,3,4,4,5,5,6,6,7,7,8,8,10,10,11,11,12,12,13,13,14,14,15,15,17,17,18,18,21,21,22,22,23,23,31,31,32,32,33,33,34,34,35,35,36,36,37,37,40,40],"right_children":[2,4,6,8,10,12,14,16,18,-1,20,22,24,26,28,30,-1,32,34,-1,-1,36,38,40,-1,-1,-1,-1,-1,-1,-1,42,44,46,48,50,52,54,-1,-1,56,-1,-1,-1,-1,-1,-1,-1,-1,-1,-1,-1,-1,-1,-1,-1,-1],"split_conditions":[-8.1E1,1.84E2,1.63E2,-6.88E2,-2.9E1,1.24E2,4.67E2,-1.87E2,-7.2E1,1.0515758E-1,-1.65E2,4E0,1.74E2,3.5E2,2.21E2,-1.81E2,-4.9708407E-2,1.7E1,2.9E1,2.3216946E-2,-8.9888595E-2,-6.7E1,-1.23E2,-1.3E2,-7.178089E-2,-1.0702366E-1,-0E0,7.948913E-2,-0E0,-0E0,1.01085834E-1,-1.95E2,-1.65E2,1.12E2,-2.45E2,-2.32E2,-8E0,7.4E1,-2.1464614E-2,-4.4034075E-2,1.967E3,2.6032705E-2,-8.692172E-2,-1.3105104E-2,1.12874284E-1,-1.0167785E-1,2.5066301E-2,3.9794724E-2,-8.429822E-2,-2.6144136E-2,8.79647E-2,1.6644381E-2,-9.2569694E-2,1.1504095E-1,-0E0,1.1274735E-1,-0E0],"split_indices":[5749,3590,2646,5938,1670,3000,3000,3415,3750,0,3376,545,20,2783,3258,3375,0,4298,816,0,0,1563,31,5881,0,0,0,0,0,0,0,573,2837,5922,2839,5882,107,5925,0,0,2513,0,0,0,0,0,0,0,0,0,0,0,0,0,0,0,0],"split_type":[0,0,0,0,0,0,0,0,0,0,0,0,0,0,0,0,0,0,0,0,0,0,0,0,0,0,0,0,0,0,0,0,0,0,0,0,0,0,0,0,0,0,0,0,0,0,0,0,0,0,0,0,0,0,0,0,0],"sum_hessian":[4.613828E2,2.1942142E2,2.4196141E2,2.0524155E2,1.4179868E1,2.2003444E2,2.1926971E1,7.778195E0,1.9746336E2,7.646252E0,6.5336156E0,7.175542E1,1.4827902E2,1.6374084E1,5.552886E0,5.646287E0,2.131908E0,1.123306E1,1.862303E2,1.0050018E0,5.5286136E0,4.933445E1,2.2420963E1,1.4482047E2,3.458549E0,1.513519E1,1.2388947E0,4.5513744E0,1.0015115E0,1.2020394E0,4.4442477E0,6.6190524E0,4.6140075E0,1.5616313E2,3.0067158E1,1.8775145E1,3.0559307E1,2.1214012E1,1.2069525E0,1.8742006E0,1.4294627E2,1.0085905E0,5.6104617E0,1.0844797E0,3.529528E0,1.5448926E2,1.6738865E0,9.180151E0,2.0887007E1,4.2235813E0,1.4551563E1,1.3245984E1,1.7313322E1,1.8454668E1,2.7593434E0,1.4152527E2,1.42101E0],"tree_param":{"num_deleted":"0","num_feature":"6000","num_nodes":"57","size_leaf_vector":"1"}},{"base_weights":[-4.1214395E-3,-7.782665E-1,5.808398E-1,-8.282583E-1,1.3513517E-1,2.0486663E-1,9.997337E-1,-9.382204E-1,-3.8400343E-1,9.664307E-2,-6.9655485E-2,5.1251674E-1,-4.775899E-1,1.077226E0,-9.4457485E-2,-9.9764854E-1,-0E0,1.2818164E-1,-9.4245046E-1,1.5941676E-1,9.935198E-1,-0E0,-9.437043E-1,1.0927048E0,-0E0,2.7413914E-1,-6.785737E-2,-1.041185E0,-0E0,-7.492522E-2,8.214491E-1,-7.912247E-2,6.338283E-1,-9.853594E-1,-0E0,-7.008596E-1,5.8063775E-1,1.0952643E0,-3.0492535E-2,-9.423971E-2,3.8026413E-1,-1.0628E0,5.4603275E-3,-0E0,1.1144475E0,5.65855E-2,-0E0,-0E0,-1.05647445E-1,7.449689E-2,-5.6345213E-2,1.398229E-1,-1.3441785E-2,-1.7855018E-2,1.2504895E-1,-0E0,-1.0229447E-1,-1.02101386E-1,1.6741041E-2,7.246888E-2,-4.8928227E-2,-0E0,1.1284375E-1,6.8686776E-2,-5.590527E-2,-0E0,-1.1702489E-1,-1.1917138E-2,1.9522578E-2,9.917204E-3,1.13349795E-1],"categories":[],"categories_nodes":[],"categories_segments":[],"categories_sizes":[],"default_left":[0,0,0,0,0,0,0,0,0,0,0,0,0,0,0,0,0,0,0,0,0,0,0,0,0,0,0,0,0,0,0,0,0,0,0,0,0,0,0,0,0,0,0,0,0,0,0,0,0,0,0,0,0,0,0,0,0,0,0,0,0,0,0,0,0,0,0,0,0,0,0],"id":15,"left_children":[1,3,5,7,9,11,13,15,17,-1,-1,19,21,23,25,27,29,31,33,35,37,39,41,43,-1,45,-1,47,49,-1,51,-1,53,55,-1,57,59,61,-1,-1,63,65,-1,67,69,-1,-1,-1,-1,-1,-1,-1,-1,-1,-1,-1,-1,-1,-1,-1,-1,-1,-1,-1,-1,-1,-1,-1,-1,-1,-1],"loss_changes":[1.9759088E2,9.405319E0,3.757862E1,7.0984344E0,7.5769515E0,2.8199171E1,1.0884514E1,7.841934E0,1.2136267E1,0E0,0E0,1.4509459E1,9.113087E0,2.4618378E0,2.2504337E0,6.300522E0,6.450589E0,9.815353E0,6.524086E-1,2.0617968E1,6.1501656E0,7.918537E0,3.5260544E0,2.3702393E0,0E0,7.541331E-1,0E0,2.8503418E0,3.0650988E0,0E0,4.191245E0,0E0,8.509574E0,3.679104E-1,0E0,6.0600796E0,6.5995626E0,1.1292305E0,0E0,0E0,5.060072E0,2.3816738E0,0E0,1.1223595E-1,6.97525E-1,0E0,0E0,0E0,0E0,0E0,0E0,0E0,0E0,0E0,0E0,0E0,0E0,0E0,0E0,0E0,0E0,0E0,0E0,0E0,0E0,0E0,0E0,0E0,0E0,0E0,0E0],"parents":[2147483647,0,0,1,1,2,2,3,3,4,4,5,5,6,6,7,7,8,8,11,11,12,12,13,13,14,14,15,15,16,16,17,17,18,18,19,19,20,20,21,21,22,22,23,23,25,25,27,27,28,28,30,30,32,32,33,33,35,35,36,36,37,37,40,40,41,41,43,43,44,44],"right_children":[2,4,6,8,10,12,14,16,18,-1,-1,20,22,24,26,28,30,32,34,36,38,40,42,44,-1,46,-1,48,50,-1,52,-1,54,56,-1,58,60,62,-1,-1,64,66,-1,68,70,-1,-1,-1,-1,-1,-1,-1,-1,-1,-1,-1,-1,-1,-1,-1,-1,-1,-1,-1,-1,-1,-1,-1,-1,-1,-1],"split_conditions":[-1.16E2,1.61E2,3.7E1,2.4E1,-5.8E1,5E0,-1.2E1,5.16E2,-2.33E2,9.664307E-2,-6.9655485E-2,6.1E1,3.3E1,2.03E3,-3E1,6.3E1,3E0,-7.8E1,1.044E3,-2.6E1,-1.14E2,-1E1,8.33E2,-1.675E3,-0E0,5E0,-6.785737E-2,-1.16E2,-2.52E2,-7.492522E-2,-1.98E2,-7.912247E-2,-9.6E1,-1.64E2,-0E0,1.5E1,1.45E2,-1.85E2,-3.0492535E-2,-9.423971E-2,-1.28E2,-7.4E1,5.4603275E-3,-9E1,-4E1,5.65855E-2,-0E0,-0E0,-1.05647445E-1,7.449689E-2,-5.6345213E-2,1.398229E-1,-1.3441785E-2,-1.7855018E-2,1.2504895E-1,-0E0,-1.0229447E-1,-1.02101386E-1,1.6741041E-2,7.246888E-2,-4.8928227E-2,-0E0,1.1284375E-1,6.8686776E-2,-5.590527E-2,-0E0,-1.1702489E-1,-1.1917138E-2,1.9522578E-2,9.917204E-3,1.13349795E-1],"split_indices":[5995,3530,3349,5831,1982,2336,1585,1624,2839,0,0,5990,2880,2399,2366,4428,2118,3135,3615,5761,301,3006,2697,2531,0,5957,0,5868,2917,0,2845,0,5001,92,0,389,2454,2850,0,0,493,4840,0,2671,5945,0,0,0,0,0,0,0,0,0,0,0,0,0,0,0,0,0,0,0,0,0,0,0,0,0,0],"split_type":[0,0,0,0,0,0,0,0,0,0,0,0,0,0,0,0,0,0,0,0,0,0,0,0,0,0,0,0,0,0,0,0,0,0,0,0,0,0,0,0,0,0,0,0,0,0,0,0,0,0,0,0,0,0,0,0,0,0,0,0,0,0,0,0,0,0,0,0,0,0,0],"sum_hessian":[4.338982E2,1.8734393E2,2.4655424E2,1.7874878E2,8.595161E0,1.3197656E2,1.1457768E2,1.4058763E2,3.8161144E1,4.818905E0,3.776256E0,9.214988E1,3.9826683E1,1.07867744E2,6.7099414E0,1.3210075E2,8.486884E0,1.9372894E1,1.8788248E1,5.5106857E1,3.7043026E1,2.0137495E1,1.9689188E1,1.06867096E2,1.0006487E0,3.3896494E0,3.3202918E0,1.2701434E2,5.0864034E0,4.5179687E0,3.968916E0,5.971891E0,1.3401003E1,1.7774298E1,1.0139505E0,1.7114765E1,3.7992092E1,3.5210598E1,1.8324276E0,5.344808E0,1.4792686E1,1.8427877E1,1.2613093E0,2.2594793E0,1.0460761E2,2.3855486E0,1.0041009E0,1.1247253E0,1.2588962E2,2.4329183E0,2.6534853E0,2.8391364E0,1.1297797E0,5.3896265E0,8.011376E0,1.0026858E0,1.6771612E1,1.3217075E1,3.8976893E0,3.4592037E1,3.4000545E0,1.2109011E0,3.39997E1,1.2157653E1,2.6350336E0,1.6647336E0,1.6763144E1,1.0954969E0,1.1639824E0,3.0077946E0,1.01599815E2],"tree_param":{"num_deleted":"0","num_feature":"6000","num_nodes":"71","size_leaf_vector":"1"}},{"base_weights":[-5.285004E-3,-6.650488E-1,6.340995E-1,-7.76432E-1,2.6379558E-1,7.467501E-1,-5.631052E-1,-8.366535E-1,-0E0,1.0397605E0,-5.748255E-1,8.365045E-1,-2.7204722E-1,5.7483263E-2,-8.9397025E-1,-9.534118E-1,-3.757924E-1,7.846097E-1,-4.3440118E-1,1.0865965E-1,-0E0,-9.178994E-2,4.7090895E-2,1.3252614E-1,9.8896074E-1,-7.812905E-1,6.534701E-2,-9.7751796E-2,-0E0,-0E0,-1.0066898E0,9.012434E-2,-9.2279685E-1,-0E0,1.0873687E-1,2.3214644E-1,-7.63623E-1,4.13708E-2,-0E0,7.3179907E-1,-2.3856644E-1,3.8389084E-1,1.1086767E0,7.6725925E-3,-1.0046413E-1,-7.09278E-2,7.878718E-2,-1.0455394E-1,-2.5143E-3,-4.483599E-2,7.909882E-2,-0E0,-9.685798E-2,6.5897904E-2,-0E0,-0E0,-8.827295E-2,-2.1386847E-3,9.347294E-2,-5.5901796E-2,5.3695817E-2,-6.649736E-3,1.01436675E-1,1.12442516E-1,-0E0],"categories":[],"categories_nodes":[],"categories_segments":[],"categories_sizes":[],"default_left":[0,0,0,0,0,0,0,0,0,0,0,0,0,0,0,0,0,0,0,0,0,0,0,0,0,0,0,0,0,0,0,0,0,0,0,0,0,0,0,0,0,0,0,0,0,0,0,0,0,0,0,0,0,0,0,0,0,0,0,0,0,0,0,0,0],"id":16,"left_children":[1,3,5,7,9,11,13,15,17,19,21,23,25,-1,27,29,31,33,35,-1,-1,-1,37,39,41,43,-1,-1,-1,45,47,49,51,-1,-1,53,55,-1,-1,57,59,61,63,-1,-1,-1,-1,-1,-1,-1,-1,-1,-1,-1,-1,-1,-1,-1,-1,-1,-1,-1,-1,-1,-1],"loss_changes":[1.7292068E2,2.1664864E1,2.8571426E1,7.7388153E0,1.50308075E1,1.8232658E1,7.4749436E0,7.3419952E0,5.1995974E0,2.645588E-2,3.120352E0,1.7683502E1,7.847136E0,0E0,1.348876E0,7.5512238E0,1.0422451E1,1.561897E0,3.1632962E0,0E0,0E0,0E0,4.308621E-1,8.168895E0,8.491272E0,3.116621E0,0E0,0E0,0E0,4.594392E0,3.6850204E0,8.27087E0,6.3904667E-1,0E0,0E0,8.730791E-1,9.288516E-1,0E0,0E0,3.099996E0,5.4303718E0,8.58161E0,2.7794495E0,0E0,0E0,0E0,0E0,0E0,0E0,0E0,0E0,0E0,0E0,0E0,0E0,0E0,0E0,0E0,0E0,0E0,0E0,0E0,0E0,0E0,0E0],"parents":[2147483647,0,0,1,1,2,2,3,3,4,4,5,5,6,6,7,7,8,8,9,9,10,10,11,11,12,12,14,14,15,15,16,16,17,17,18,18,22,22,23,23,24,24,25,25,29,29,30,30,31,31,32,32,35,35,36,36,39,39,40,40,41,41,42,42],"right_children":[2,4,6,8,10,12,14,16,18,20,22,24,26,-1,28,30,32,34,36,-1,-1,-1,38,40,42,44,-1,-1,-1,46,48,50,52,-1,-1,54,56,-1,-1,58,60,62,64,-1,-1,-1,-1,-1,-1,-1,-1,-1,-1,-1,-1,-1,-1,-1,-1,-1,-1,-1,-1,-1,-1],"split_conditions":[-5.6E1,1.61E2,-8.2E1,5.2E1,-4.5E1,1.65E2,-1.53E2,2.4E1,-1E2,7.8E1,1.62E2,4.7E1,4.87E2,5.7483263E-2,1.52E2,-7.8E1,-2.29E2,6.3E1,-2.72E2,1.0865965E-1,-0E0,-9.178994E-2,-4E0,-1.7E1,-4.6E1,1.12E2,6.534701E-2,-9.7751796E-2,-0E0,5.3E1,5.3E2,9E0,-1.416E3,-0E0,1.0873687E-1,-5.7E1,-3.28E2,4.13708E-2,-0E0,-2.41E2,1.78E2,6.6E1,1.64E2,7.6725925E-3,-1.0046413E-1,-7.09278E-2,7.878718E-2,-1.0455394E-1,-2.5143E-3,-4.483599E-2,7.909882E-2,-0E0,-9.685798E-2,6.5897904E-2,-0E0,-0E0,-8.827295E-2,-2.1386847E-3,9.347294E-2,-5.5901796E-2,5.3695817E-2,-6.649736E-3,1.01436675E-1,1.12442516E-1,-0E0],"split_indices":[5983,3530,7,5976,1724,2682,3896,5831,1874,2430,3000,3000,3000,0,3049,5166,2827,5994,703,0,0,0,2868,3611,3583,2592,0,0,0,5606,1624,1494,3123,0,0,3795,2775,0,0,3704,3591,5978,8,0,0,0,0,0,0,0,0,0,0,0,0,0,0,0,0,0,0,0,0,0,0],"split_type":[0,0,0,0,0,0,0,0,0,0,0,0,0,0,0,0,0,0,0,0,0,0,0,0,0,0,0,0,0,0,0,0,0,0,0,0,0,0,0,0,0,0,0,0,0,0,0,0,0,0,0,0,0,0,0,0,0,0,0,0,0,0,0,0,0],"sum_hessian":[4.0784436E2,2.014733E2,2.0637105E2,1.8100824E2,2.046507E1,1.8973E2,1.664105E1,1.6680528E2,1.4202948E1,1.1124401E1,9.340671E0,1.7543494E2,1.4295055E1,2.901665E0,1.3739386E1,1.3050377E2,3.6301525E1,4.017545E0,1.0185402E1,1.0124127E1,1.0002733E0,6.7494287E0,2.5912414E0,3.2730038E1,1.427049E2,1.0018779E1,4.276277E0,1.2739164E1,1.000221E0,6.0998564E0,1.2440391E2,1.9067598E1,1.7233925E1,1.0841255E0,2.9334197E0,2.4607422E0,7.72466E0,1.5639195E0,1.0273217E0,1.3175621E1,1.9554417E1,2.5645716E1,1.1705919E2,1.2801638E0,8.738615E0,2.684377E0,3.4154792E0,1.1862474E2,5.779164E0,1.0179783E1,8.887815E0,1.0018456E0,1.623208E1,1.4400159E0,1.0207262E0,1.0035511E0,6.7211084E0,1.9404305E0,1.123519E1,1.4946894E1,4.6075234E0,1.4555933E1,1.1089784E1,1.15973656E2,1.0855287E0],"tree_param":{"num_deleted":"0","num_feature":"6000","num_nodes":"65","size_leaf_vector":"1"}},{"base_weights":[-4.640445E-3,-6.345862E-1,6.186137E-1,-7.451748E-1,2.024439E-1,7.408954E-1,-4.3800676E-1,-8.5826623E-1,-2.4009034E-1,1.0346086E0,-6.85364E-1,8.2564163E-1,-2.0857659E-1,6.710812E-2,-8.415729E-1,-9.121427E-1,-3.16914E-2,3.7573227E-1,-7.952576E-1,1.0796013E-1,-0E0,-9.856926E-2,1.3829161E-2,1.5915383E-1,9.7812855E-1,6.97126E-2,-7.351312E-1,5.835626E-5,-9.767426E-2,-0E0,-9.666863E-1,4.294789E-1,-5.8509326E-1,-5.081631E-1,9.05524E-1,1.8484712E-3,-9.2268026E-1,-1.35727E-1,8.561161E-1,3.4957665E-1,1.1047695E0,-9.635347E-2,-0E0,5.0766278E-2,-7.376159E-2,-0E0,-9.971859E-2,8.6039685E-2,-1.5684275E-2,-7.398351E-2,-0E0,-0E0,-7.2626404E-2,1.4056866E-1,-2.8398383E-2,-9.883507E-2,-0E0,5.5675436E-2,-5.6695145E-2,9.830209E-2,-0E0,6.4090826E-2,-7.7143334E-2,1.1128145E-1,-0E0],"categories":[],"categories_nodes":[],"categories_segments":[],"categories_sizes":[],"default_left":[0,0,0,0,0,0,0,0,0,0,0,0,0,0,0,0,0,0,0,0,0,0,0,0,0,0,0,0,0,0,0,0,0,0,0,0,0,0,0,0,0,0,0,0,0,0,0,0,0,0,0,0,0,0,0,0,0,0,0,0,0,0,0,0,0],"id":17,"left_children":[1,3,5,7,9,11,13,15,17,19,21,23,25,-1,27,29,31,33,35,-1,-1,-1,-1,37,39,-1,41,-1,-1,43,45,47,49,51,53,-1,55,57,59,61,63,-1,-1,-1,-1,-1,-1,-1,-1,-1,-1,-1,-1,-1,-1,-1,-1,-1,-1,-1,-1,-1,-1,-1,-1],"loss_changes":[1.5122546E2,1.849704E1,2.5538254E1,8.472137E0,1.7442453E1,1.4791824E1,9.5879E0,5.1655807E0,1.2451113E1,1.1471748E-2,3.6428394E0,1.5062561E1,7.2705975E0,0E0,2.753272E0,5.847519E0,3.1137702E0,8.394644E0,2.9144306E0,0E0,0E0,0E0,0E0,7.491246E0,8.471779E0,0E0,2.5183744E0,0E0,0E0,3.7980967E0,3.5115433E0,2.1968622E0,7.104225E-1,1.075272E0,8.142833E0,0E0,1.171215E0,7.076878E0,1.4953275E0,8.369156E0,6.223602E-1,0E0,0E0,0E0,0E0,0E0,0E0,0E0,0E0,0E0,0E0,0E0,0E0,0E0,0E0,0E0,0E0,0E0,0E0,0E0,0E0,0E0,0E0,0E0,0E0],"parents":[2147483647,0,0,1,1,2,2,3,3,4,4,5,5,6,6,7,7,8,8,9,9,10,10,11,11,12,12,14,14,15,15,16,16,17,17,18,18,23,23,24,24,26,26,29,29,30,30,31,31,32,32,33,33,34,34,36,36,37,37,38,38,39,39,40,40],"right_children":[2,4,6,8,10,12,14,16,18,20,22,24,26,-1,28,30,32,34,36,-1,-1,-1,-1,38,40,-1,42,-1,-1,44,46,48,50,52,54,-1,56,58,60,62,64,-1,-1,-1,-1,-1,-1,-1,-1,-1,-1,-1,-1,-1,-1,-1,-1,-1,-1,-1,-1,-1,-1,-1,-1],"split_conditions":[-5.5E1,1.56E2,-1.12E2,2.8E1,-2.6E1,1.76E2,-7.6E1,5.2E1,-2.32E2,6.8E1,1.89E2,4.7E1,1.7E2,6.710812E-2,-3.73E2,-5.8E1,1.4E1,-5.3E1,-1.13E2,1.0796013E-1,-0E0,-9.856926E-2,1.3829161E-2,0E0,-4.6E1,6.97126E-2,3.91E2,5.835626E-5,-9.767426E-2,5.6E1,-7.05E2,4.6E1,2.06E2,-5.4E1,-2E1,1.8484712E-3,-7.3E1,-1.9E1,1.02E2,6.07E2,1.58E2,-9.635347E-2,-0E0,5.0766278E-2,-7.376159E-2,-0E0,-9.971859E-2,8.6039685E-2,-1.5684275E-2,-7.398351E-2,-0E0,-0E0,-7.2626404E-2,1.4056866E-1,-2.8398383E-2,-9.883507E-2,-0E0,5.5675436E-2,-5.6695145E-2,9.830209E-2,-0E0,6.4090826E-2,-7.7143334E-2,1.1128145E-1,-0E0],"split_indices":[5947,3584,295,1542,1652,2718,2432,5982,2839,2196,3000,3000,3228,0,1441,5970,2556,1377,3444,0,0,0,0,959,3583,0,2982,0,0,4750,5998,5999,3579,2344,2396,0,5773,1001,5536,3047,5619,0,0,0,0,0,0,0,0,0,0,0,0,0,0,0,0,0,0,0,0,0,0,0,0],"split_type":[0,0,0,0,0,0,0,0,0,0,0,0,0,0,0,0,0,0,0,0,0,0,0,0,0,0,0,0,0,0,0,0,0,0,0,0,0,0,0,0,0,0,0,0,0,0,0,0,0,0,0,0,0,0,0,0,0,0,0,0,0,0,0,0,0],"sum_hessian":[3.831331E2,1.9133257E2,1.9180052E2,1.7015596E2,2.11766E1,1.7302206E2,1.8778456E1,1.36838E2,3.3317963E1,1.1426898E1,9.7497015E0,1.5993088E2,1.3091186E1,4.172027E0,1.4606429E1,1.2723166E2,9.606339E0,1.509533E1,1.8222633E1,1.0422534E1,1.0043644E0,7.8901105E0,1.859591E0,3.1379486E1,1.2855139E2,3.9955485E0,9.095637E0,1.1346592E0,1.3471769E1,7.804773E0,1.1942689E2,4.3763165E0,5.230023E0,4.965038E0,1.0130292E1,1.5203649E0,1.6702269E1,2.1607805E1,9.77168E0,2.351199E1,1.05039406E2,7.589235E0,1.5064027E0,4.3655524E0,3.4392204E0,3.7226326E0,1.15704254E2,3.2360659E0,1.1402509E0,4.1943746E0,1.0356485E0,1.0061308E0,3.9589071E0,7.595495E0,2.5347972E0,1.5626974E1,1.0752949E0,7.2904177E0,1.4317388E1,8.717454E0,1.0542266E0,1.9710018E1,3.8019726E0,1.0401433E2,1.0250779E0],"tree_param":{"num_deleted":"0","num_feature":"6000","num_nodes":"65","size_leaf_vector":"1"}},{"base_weights":[-3.5681135E-3,-7.3367095E-1,4.9706078E-1,-1.6117103E-1,-8.267637E-1,1.5206704E-1,9.4758064E-1,-8.233711E-1,2.0431629E-1,-9.3374366E-1,-2.3044856E-1,5.3025323E-1,-3.3612734E-1,1.019276E0,-1.0915516E-1,-0E0,-8.8399306E-2,7.469179E-1,-5.8458245E-1,-0E0,-9.755218E-1,4.725246E-1,-6.2494564E-1,-2.6961243E-1,7.498941E-1,-0E0,-9.324346E-1,-0E0,1.0399022E0,2.0814858E-2,-6.095753E-2,-2.0054635E-1,1.2572262E0,-0E0,-7.005216E-2,5.295369E-2,-3.329916E-2,-9.937433E-1,-0E0,1.2386247E0,-5.089554E-2,-0E0,-9.0815656E-2,-6.943095E-1,7.1587384E-2,8.468011E-1,-3.8998967E-1,-2.6739922E-1,8.6907744E-1,7.939096E-3,-1.0511239E0,1.0775837E0,1.4903495E-1,-3.4145113E-2,-0E0,-0E0,1.6422811E-1,-1.0163406E-1,-0E0,1.7534153E-1,-0E0,-5.6129515E-2,5.5268843E-2,-1.0127237E-1,3.0689035E-2,-2.087566E-3,9.4665036E-2,-5.6576338E-2,-0E0,-6.5543436E-2,4.849579E-2,1.0412568E-1,-0E0,-0E0,-1.1197281E-1,1.0888337E-1,-0E0,-4.1050296E-2,6.0624298E-2],"categories":[],"categories_nodes":[],"categories_segments":[],"categories_sizes":[],"default_left":[0,0,0,0,0,0,0,0,0,0,0,0,0,0,0,0,0,0,0,0,0,0,0,0,0,0,0,0,0,0,0,0,0,0,0,0,0,0,0,0,0,0,0,0,0,0,0,0,0,0,0,0,0,0,0,0,0,0,0,0,0,0,0,0,0,0,0,0,0,0,0,0,0,0,0,0,0,0,0],"id":18,"left_children":[1,3,5,7,9,11,13,15,17,19,21,23,25,27,29,-1,-1,31,33,35,37,39,41,43,45,47,49,-1,51,-1,-1,53,55,-1,-1,-1,-1,57,-1,59,-1,61,-1,63,-1,65,67,69,71,-1,73,75,77,-1,-1,-1,-1,-1,-1,-1,-1,-1,-1,-1,-1,-1,-1,-1,-1,-1,-1,-1,-1,-1,-1,-1,-1,-1,-1],"loss_changes":[1.325048E2,6.7671356E0,3.1996407E1,6.4618163E0,6.6308746E0,2.3185953E1,7.938492E0,1.9687271E-1,6.992346E0,4.8118744E0,6.507044E0,1.31857395E1,1.0646583E1,2.3887863E0,1.4520919E0,0E0,0E0,6.1628265E0,3.8766813E-1,1.1552E0,2.152794E0,7.008648E0,2.5616627E0,6.7900133E0,7.0925064E0,8.379218E0,3.3590508E0,0E0,1.4760208E0,0E0,0E0,1.6513729E-1,5.0695553E0,0E0,0E0,0E0,0E0,2.1853104E0,0E0,4.5312905E0,0E0,2.1631727E0,0E0,4.7657766E0,0E0,5.6008263E0,4.0838695E-1,8.587921E0,1.6959524E0,0E0,1.2194767E0,5.7930756E-1,1.9024899E0,0E0,0E0,0E0,0E0,0E0,0E0,0E0,0E0,0E0,0E0,0E0,0E0,0E0,0E0,0E0,0E0,0E0,0E0,0E0,0E0,0E0,0E0,0E0,0E0,0E0,0E0],"parents":[2147483647,0,0,1,1,2,2,3,3,4,4,5,5,6,6,7,7,8,8,9,9,10,10,11,11,12,12,13,13,14,14,17,17,18,18,19,19,20,20,21,21,22,22,23,23,24,24,25,25,26,26,28,28,31,31,32,32,37,37,39,39,41,41,43,43,45,45,46,46,47,47,48,48,50,50,51,51,52,52],"right_children":[2,4,6,8,10,12,14,16,18,20,22,24,26,28,30,-1,-1,32,34,36,38,40,42,44,46,48,50,-1,52,-1,-1,54,56,-1,-1,-1,-1,58,-1,60,-1,62,-1,64,-1,66,68,70,72,-1,74,76,78,-1,-1,-1,-1,-1,-1,-1,-1,-1,-1,-1,-1,-1,-1,-1,-1,-1,-1,-1,-1,-1,-1,-1,-1,-1,-1],"split_conditions":[-1.54E2,-2.64E2,3.7E1,-4.3E1,6E1,-3E1,-1.2E1,-1.1E2,2.3E1,-4.82E2,3.6E1,-2.25E2,5.1E1,-1.1E2,-1.54E2,-0E0,-8.8399306E-2,2.8E1,-2.6E1,-2.45E2,1.95E2,6.1E1,-2.5E2,1.05E2,1.09E2,1.3E1,-5.26E2,-0E0,1.03E2,2.0814858E-2,-6.095753E-2,1E0,-9.8E1,-0E0,-7.005216E-2,5.295369E-2,-3.329916E-2,6.3E1,-0E0,2.3E1,-5.089554E-2,8.6E1,-9.0815656E-2,1.5E1,7.1587384E-2,-3E0,3.11E2,1.55E2,-1.67E2,7.939096E-3,-4.1E1,1.48E2,-2.22E2,-3.4145113E-2,-0E0,-0E0,1.6422811E-1,-1.0163406E-1,-0E0,1.7534153E-1,-0E0,-5.6129515E-2,5.5268843E-2,-1.0127237E-1,3.0689035E-2,-2.087566E-3,9.4665036E-2,-5.6576338E-2,-0E0,-6.5543436E-2,4.849579E-2,1.0412568E-1,-0E0,-0E0,-1.1197281E-1,1.0888337E-1,-0E0,-4.1050296E-2,6.0624298E-2],"split_indices":[5863,757,3385,4214,5459,2372,1585,5858,3915,5866,3000,5318,2868,5938,2823,0,0,1702,4644,2527,3566,4858,2839,3904,2574,5617,3333,0,4405,0,0,5408,3255,0,0,0,0,5172,0,5061,0,2877,0,587,0,3000,3018,3000,2185,0,1424,5271,3272,0,0,0,0,0,0,0,0,0,0,0,0,0,0,0,0,0,0,0,0,0,0,0,0,0,0],"split_type":[0,0,0,0,0,0,0,0,0,0,0,0,0,0,0,0,0,0,0,0,0,0,0,0,0,0,0,0,0,0,0,0,0,0,0,0,0,0,0,0,0,0,0,0,0,0,0,0,0,0,0,0,0,0,0,0,0,0,0,0,0,0,0,0,0,0,0,0,0,0,0,0,0,0,0,0,0,0,0],"sum_hessian":[3.598747E2,1.4701062E2,2.1286407E2,2.2445995E1,1.2456462E2,1.2256494E2,9.029913E1,8.510218E0,1.3935778E1,1.03715126E2,2.0849493E1,7.016946E1,5.239548E1,8.5481316E1,4.8178163E0,1.007712E0,7.5025053E0,9.0393505E0,4.896427E0,3.7207117E0,9.9994415E1,6.5122824E0,1.433721E1,1.4087315E1,5.6082146E1,3.421141E1,1.8184069E1,1.1876509E0,8.429366E1,2.082859E0,2.7349572E0,2.6908298E0,6.3485208E0,1.0002705E0,3.8961565E0,2.0724978E0,1.6482139E0,9.850466E1,1.4897578E0,4.08252E0,2.4297628E0,4.968327E0,9.368882E0,1.0760325E1,3.3269887E0,5.273342E1,3.3487236E0,2.6743916E1,7.467497E0,1.0592973E0,1.7124771E1,7.959491E1,4.6987557E0,1.689607E0,1.0012227E0,1.1623074E0,5.1862135E0,9.6244675E1,2.2599795E0,3.0100782E0,1.0724417E0,2.6083724E0,2.3599546E0,8.912994E0,1.8473316E0,4.490176E0,4.8243244E1,2.342182E0,1.0065418E0,1.860579E1,8.138126E0,6.4629207E0,1.0045763E0,1.1802896E0,1.5944482E1,7.8426704E1,1.1682014E0,1.1753318E0,3.523424E0],"tree_param":{"num_deleted":"0","num_feature":"6000","num_nodes":"79","size_leaf_vector":"1"}},{"base_weights":[-4.485755E-3,-6.004162E-1,5.71134E-1,-7.177116E-1,1.5531205E-1,6.96856E-1,-3.397743E-1,-8.3711416E-1,-2.098155E-1,9.3395567E-1,-5.5008835E-1,3.4550127E-1,9.7151464E-1,3.6138788E-1,-8.7647146E-1,-1.7293517E-1,-9.137584E-1,3.347499E-1,-7.5255835E-1,1.03263475E-1,-0E0,-7.494585E-1,1.3463487E-2,9.118788E-1,1.4865197E-2,-0E0,1.0404114E0,6.7342293E-1,-3.6445912E-2,-9.404834E-2,-0E0,3.2357952E-1,-7.807881E-2,-9.5303917E-1,4.7346596E-2,-4.4579175E-1,7.938157E-1,2.5011199E-3,-8.924907E-1,-8.5121274E-2,-0E0,1.0412143E0,-2.074428E-2,-2.5402975E-1,8.376662E-1,-5.919646E-2,5.4389477E-1,-0E0,1.0644377E0,8.163158E-2,-0E0,-4.1264016E-2,8.20482E-2,-0E0,-9.922485E-2,6.293204E-2,-2.116265E-2,-6.615173E-2,-0E0,1.3293216E-1,-7.971074E-3,-0E0,-9.520595E-2,1.0737878E-1,-0E0,-5.569399E-2,6.734007E-2,9.836101E-2,-0E0,6.8854585E-2,-0E0,1.0774427E-1,-0E0],"categories":[],"categories_nodes":[],"categories_segments":[],"categories_sizes":[],"default_left":[0,0,0,0,0,0,0,0,0,0,0,0,0,0,0,0,0,0,0,0,0,0,0,0,0,0,0,0,0,0,0,0,0,0,0,0,0,0,0,0,0,0,0,0,0,0,0,0,0,0,0,0,0,0,0,0,0,0,0,0,0,0,0,0,0,0,0,0,0,0,0,0,0],"id":19,"left_children":[1,3,5,7,9,11,13,15,17,19,21,23,25,27,29,31,33,35,37,-1,-1,39,-1,41,43,45,47,49,-1,-1,-1,51,-1,53,55,57,59,-1,61,-1,-1,63,-1,65,67,-1,69,-1,71,-1,-1,-1,-1,-1,-1,-1,-1,-1,-1,-1,-1,-1,-1,-1,-1,-1,-1,-1,-1,-1,-1,-1,-1],"loss_changes":[1.1703242E2,1.5604725E1,2.0366074E1,7.699997E0,1.314992E1,1.3112648E1,8.601389E0,4.7212143E0,9.812531E0,1.1490583E0,2.3074064E0,1.2220457E1,4.840248E0,2.5592704E0,5.741129E-1,5.1489015E0,4.8577957E0,6.153191E0,2.7091084E0,0E0,0E0,9.522996E-1,0E0,4.6361237E0,1.1085674E1,2.6209393E0,1.7494278E0,9.287088E-1,0E0,0E0,0E0,3.6353626E0,0E0,3.5048828E0,1.1562355E0,8.6752355E-1,6.3822126E0,0E0,7.713537E-1,0E0,0E0,4.2716408E-1,0E0,1.0063592E1,1.4123106E0,0E0,3.8829148E-1,0E0,8.0596924E-1,0E0,0E0,0E0,0E0,0E0,0E0,0E0,0E0,0E0,0E0,0E0,0E0,0E0,0E0,0E0,0E0,0E0,0E0,0E0,0E0,0E0,0E0,0E0,0E0],"parents":[2147483647,0,0,1,1,2,2,3,3,4,4,5,5,6,6,7,7,8,8,9,9,10,10,11,11,12,12,13,13,14,14,15,15,16,16,17,17,18,18,21,21,23,23,24,24,25,25,26,26,27,27,31,31,33,33,34,34,35,35,36,36,38,38,41,41,43,43,44,44,46,46,48,48],"right_children":[2,4,6,8,10,12,14,16,18,20,22,24,26,28,30,32,34,36,38,-1,-1,40,-1,42,44,46,48,50,-1,-1,-1,52,-1,54,56,58,60,-1,62,-1,-1,64,-1,66,68,-1,70,-1,72,-1,-1,-1,-1,-1,-1,-1,-1,-1,-1,-1,-1,-1,-1,-1,-1,-1,-1,-1,-1,-1,-1,-1,-1],"split_conditions":[-5.6E1,1.34E2,-7.4E1,2.8E1,-4.4E1,1.4E1,-2.3E1,-2.32E2,-2.32E2,4.4E1,-5.6E1,-1.15E2,3.9E1,2E1,4.02E2,4E0,7.4E1,-5.3E1,-1.13E2,1.03263475E-1,-0E0,6.3E1,1.3463487E-2,1.3E2,1.08E2,-2.35E2,-1.622E3,5.8E1,-3.6445912E-2,-9.404834E-2,-0E0,-6E1,-7.807881E-2,-5.26E2,1.7E1,5E1,1.3E1,2.5011199E-3,-8.32E2,-8.5121274E-2,-0E0,-1.38E2,-2.074428E-2,2.2E1,4.8E1,-5.919646E-2,5.5E1,-0E0,1.89E2,8.163158E-2,-0E0,-4.1264016E-2,8.20482E-2,-0E0,-9.922485E-2,6.293204E-2,-2.116265E-2,-6.615173E-2,-0E0,1.3293216E-1,-7.971074E-3,-0E0,-9.520595E-2,1.0737878E-1,-0E0,-5.569399E-2,6.734007E-2,9.836101E-2,-0E0,6.8854585E-2,-0E0,1.0774427E-1,-0E0],"split_indices":[5983,3524,1465,1542,1742,3475,2564,3592,2839,2130,3535,1509,3000,5975,2775,2110,5934,1377,3444,0,0,5289,0,2448,5894,3332,2513,5373,0,0,0,2915,0,5920,2538,1200,3951,0,2332,0,0,1189,0,5467,674,0,5350,0,2586,0,0,0,0,0,0,0,0,0,0,0,0,0,0,0,0,0,0,0,0,0,0,0,0],"split_type":[0,0,0,0,0,0,0,0,0,0,0,0,0,0,0,0,0,0,0,0,0,0,0,0,0,0,0,0,0,0,0,0,0,0,0,0,0,0,0,0,0,0,0,0,0,0,0,0,0,0,0,0,0,0,0,0,0,0,0,0,0,0,0,0,0,0,0,0,0,0,0,0,0],"sum_hessian":[3.390882E2,1.6743718E2,1.7165102E2,1.4613008E2,2.1307096E1,1.5200441E2,1.9646603E1,1.16196144E2,2.9933943E1,1.0647581E1,1.0659515E1,6.927884E1,8.272557E1,7.8519306E0,1.1794672E1,1.3708183E1,1.0248796E2,1.4213472E1,1.572047E1,9.605424E0,1.0421569E0,9.313589E0,1.3459265E0,2.3773153E1,4.5505688E1,6.250025E0,7.647555E1,6.5052905E0,1.3466402E0,1.0761337E1,1.0333353E0,6.8970084E0,6.811175E0,9.947138E1,3.016578E0,4.4676986E0,9.745773E0,1.4329388E0,1.4287532E1,8.309498E0,1.0040911E0,2.217415E1,1.5990024E0,3.3902203E1,1.1603486E1,2.3040762E0,3.9459486E0,1.914038E0,7.456151E1,5.5013986E0,1.0038917E0,2.036621E0,4.8603873E0,4.2236285E0,9.524776E1,1.6777102E0,1.3388677E0,3.4654887E0,1.0022097E0,6.428097E0,3.3176768E0,1.0021896E0,1.3285342E1,2.115997E1,1.0141823E0,2.6669384E1,7.2328186E0,9.600623E0,2.0028632E0,2.9051414E0,1.0408072E0,7.3442696E1,1.1188111E0],"tree_param":{"num_deleted":"0","num_feature":"6000","num_nodes":"73","size_leaf_vector":"1"}}]},"name":"gbtree"},"learner_model_param":{"base_score":"4.104759E-1","boost_from_average":"1","num_class":"0","num_feature":"6000","num_target":"1"},"objective":{"name":"binary:logistic","reg_loss_param":{"scale_pos_weight":"1"}}},"version":[2,1,3]}